digraph Tree {
node [shape=box] ;
0 [label="Agency_Code <= 0.5\ngini = 0.419\nsamples = 2098\nvalue = [1471, 627]\nclass = No"] ;
1 [label="Sales <= 52.9\ngini = 0.483\nsamples = 639\nvalue = [261, 378]\nclass = Yes"] ;
0 -> 1 [labeldistance=2.5, labelangle=45, headlabel="True"] ;
2 [label="Sales <= 15.5\ngini = 0.494\nsamples = 338\nvalue = [187, 151]\nclass = No"] ;
1 -> 2 ;
3 [label="Sales <= 4.565\ngini = 0.254\nsamples = 67\nvalue = [57, 10]\nclass = No"] ;
2 -> 3 ;
4 [label="gini = 0.0\nsamples = 23\nvalue = [23, 0]\nclass = No"] ;
3 -> 4 ;
5 [label="Commision <= 3.775\ngini = 0.351\nsamples = 44\nvalue = [34, 10]\nclass = No"] ;
3 -> 5 ;
6 [label="Age <= 46.0\ngini = 0.453\nsamples = 26\nvalue = [17, 9]\nclass = No"] ;
5 -> 6 ;
7 [label="Duration <= 2.5\ngini = 0.48\nsamples = 10\nvalue = [4, 6]\nclass = Yes"] ;
6 -> 7 ;
8 [label="gini = 0.0\nsamples = 1\nvalue = [1, 0]\nclass = No"] ;
7 -> 8 ;
9 [label="Age <= 33.5\ngini = 0.444\nsamples = 9\nvalue = [3, 6]\nclass = Yes"] ;
7 -> 9 ;
10 [label="Age <= 22.5\ngini = 0.5\nsamples = 6\nvalue = [3, 3]\nclass = No"] ;
9 -> 10 ;
11 [label="gini = 0.0\nsamples = 1\nvalue = [0, 1]\nclass = Yes"] ;
10 -> 11 ;
12 [label="Duration <= 9.5\ngini = 0.48\nsamples = 5\nvalue = [3, 2]\nclass = No"] ;
10 -> 12 ;
13 [label="Age <= 29.0\ngini = 0.444\nsamples = 3\nvalue = [1, 2]\nclass = Yes"] ;
12 -> 13 ;
14 [label="gini = 0.0\nsamples = 2\nvalue = [0, 2]\nclass = Yes"] ;
13 -> 14 ;
15 [label="gini = 0.0\nsamples = 1\nvalue = [1, 0]\nclass = No"] ;
13 -> 15 ;
16 [label="gini = 0.0\nsamples = 2\nvalue = [2, 0]\nclass = No"] ;
12 -> 16 ;
17 [label="gini = 0.0\nsamples = 3\nvalue = [0, 3]\nclass = Yes"] ;
9 -> 17 ;
18 [label="Commision <= 2.63\ngini = 0.305\nsamples = 16\nvalue = [13, 3]\nclass = No"] ;
6 -> 18 ;
19 [label="Commision <= 2.26\ngini = 0.5\nsamples = 6\nvalue = [3, 3]\nclass = No"] ;
18 -> 19 ;
20 [label="Sales <= 4.995\ngini = 0.375\nsamples = 4\nvalue = [3, 1]\nclass = No"] ;
19 -> 20 ;
21 [label="gini = 0.0\nsamples = 1\nvalue = [0, 1]\nclass = Yes"] ;
20 -> 21 ;
22 [label="gini = 0.0\nsamples = 3\nvalue = [3, 0]\nclass = No"] ;
20 -> 22 ;
23 [label="gini = 0.0\nsamples = 2\nvalue = [0, 2]\nclass = Yes"] ;
19 -> 23 ;
24 [label="gini = 0.0\nsamples = 10\nvalue = [10, 0]\nclass = No"] ;
18 -> 24 ;
25 [label="Age <= 67.0\ngini = 0.105\nsamples = 18\nvalue = [17, 1]\nclass = No"] ;
5 -> 25 ;
26 [label="gini = 0.0\nsamples = 17\nvalue = [17, 0]\nclass = No"] ;
25 -> 26 ;
27 [label="gini = 0.0\nsamples = 1\nvalue = [0, 1]\nclass = Yes"] ;
25 -> 27 ;
28 [label="Commision <= 12.325\ngini = 0.499\nsamples = 271\nvalue = [130, 141]\nclass = Yes"] ;
2 -> 28 ;
29 [label="Duration <= 7.5\ngini = 0.494\nsamples = 246\nvalue = [109, 137]\nclass = Yes"] ;
28 -> 29 ;
30 [label="Sales <= 27.375\ngini = 0.475\nsamples = 49\nvalue = [30, 19]\nclass = No"] ;
29 -> 30 ;
31 [label="Commision <= 5.505\ngini = 0.498\nsamples = 36\nvalue = [19, 17]\nclass = No"] ;
30 -> 31 ;
32 [label="Product Name <= 1.5\ngini = 0.469\nsamples = 24\nvalue = [15, 9]\nclass = No"] ;
31 -> 32 ;
33 [label="Age <= 38.0\ngini = 0.499\nsamples = 19\nvalue = [10, 9]\nclass = No"] ;
32 -> 33 ;
34 [label="Duration <= 4.5\ngini = 0.444\nsamples = 15\nvalue = [10, 5]\nclass = No"] ;
33 -> 34 ;
35 [label="gini = 0.0\nsamples = 3\nvalue = [3, 0]\nclass = No"] ;
34 -> 35 ;
36 [label="Duration <= 6.5\ngini = 0.486\nsamples = 12\nvalue = [7, 5]\nclass = No"] ;
34 -> 36 ;
37 [label="Age <= 26.0\ngini = 0.5\nsamples = 10\nvalue = [5, 5]\nclass = No"] ;
36 -> 37 ;
38 [label="gini = 0.0\nsamples = 1\nvalue = [1, 0]\nclass = No"] ;
37 -> 38 ;
39 [label="Age <= 29.5\ngini = 0.494\nsamples = 9\nvalue = [4, 5]\nclass = Yes"] ;
37 -> 39 ;
40 [label="gini = 0.0\nsamples = 2\nvalue = [0, 2]\nclass = Yes"] ;
39 -> 40 ;
41 [label="Age <= 30.5\ngini = 0.49\nsamples = 7\nvalue = [4, 3]\nclass = No"] ;
39 -> 41 ;
42 [label="gini = 0.0\nsamples = 1\nvalue = [1, 0]\nclass = No"] ;
41 -> 42 ;
43 [label="Age <= 33.0\ngini = 0.5\nsamples = 6\nvalue = [3, 3]\nclass = No"] ;
41 -> 43 ;
44 [label="Commision <= 4.195\ngini = 0.48\nsamples = 5\nvalue = [2, 3]\nclass = Yes"] ;
43 -> 44 ;
45 [label="Duration <= 5.5\ngini = 0.5\nsamples = 2\nvalue = [1, 1]\nclass = No"] ;
44 -> 45 ;
46 [label="gini = 0.0\nsamples = 1\nvalue = [1, 0]\nclass = No"] ;
45 -> 46 ;
47 [label="gini = 0.0\nsamples = 1\nvalue = [0, 1]\nclass = Yes"] ;
45 -> 47 ;
48 [label="Age <= 31.5\ngini = 0.444\nsamples = 3\nvalue = [1, 2]\nclass = Yes"] ;
44 -> 48 ;
49 [label="gini = 0.0\nsamples = 1\nvalue = [1, 0]\nclass = No"] ;
48 -> 49 ;
50 [label="gini = 0.0\nsamples = 2\nvalue = [0, 2]\nclass = Yes"] ;
48 -> 50 ;
51 [label="gini = 0.0\nsamples = 1\nvalue = [1, 0]\nclass = No"] ;
43 -> 51 ;
52 [label="gini = 0.0\nsamples = 2\nvalue = [2, 0]\nclass = No"] ;
36 -> 52 ;
53 [label="gini = 0.0\nsamples = 4\nvalue = [0, 4]\nclass = Yes"] ;
33 -> 53 ;
54 [label="gini = 0.0\nsamples = 5\nvalue = [5, 0]\nclass = No"] ;
32 -> 54 ;
55 [label="Age <= 50.5\ngini = 0.444\nsamples = 12\nvalue = [4, 8]\nclass = Yes"] ;
31 -> 55 ;
56 [label="Duration <= 5.5\ngini = 0.346\nsamples = 9\nvalue = [2, 7]\nclass = Yes"] ;
55 -> 56 ;
57 [label="gini = 0.0\nsamples = 5\nvalue = [0, 5]\nclass = Yes"] ;
56 -> 57 ;
58 [label="Age <= 27.5\ngini = 0.5\nsamples = 4\nvalue = [2, 2]\nclass = No"] ;
56 -> 58 ;
59 [label="gini = 0.0\nsamples = 1\nvalue = [0, 1]\nclass = Yes"] ;
58 -> 59 ;
60 [label="Commision <= 5.74\ngini = 0.444\nsamples = 3\nvalue = [2, 1]\nclass = No"] ;
58 -> 60 ;
61 [label="gini = 0.0\nsamples = 1\nvalue = [0, 1]\nclass = Yes"] ;
60 -> 61 ;
62 [label="gini = 0.0\nsamples = 2\nvalue = [2, 0]\nclass = No"] ;
60 -> 62 ;
63 [label="Age <= 54.5\ngini = 0.444\nsamples = 3\nvalue = [2, 1]\nclass = No"] ;
55 -> 63 ;
64 [label="gini = 0.0\nsamples = 2\nvalue = [2, 0]\nclass = No"] ;
63 -> 64 ;
65 [label="gini = 0.0\nsamples = 1\nvalue = [0, 1]\nclass = Yes"] ;
63 -> 65 ;
66 [label="Commision <= 8.255\ngini = 0.26\nsamples = 13\nvalue = [11, 2]\nclass = No"] ;
30 -> 66 ;
67 [label="gini = 0.0\nsamples = 10\nvalue = [10, 0]\nclass = No"] ;
66 -> 67 ;
68 [label="Age <= 48.0\ngini = 0.444\nsamples = 3\nvalue = [1, 2]\nclass = Yes"] ;
66 -> 68 ;
69 [label="gini = 0.0\nsamples = 1\nvalue = [1, 0]\nclass = No"] ;
68 -> 69 ;
70 [label="gini = 0.0\nsamples = 2\nvalue = [0, 2]\nclass = Yes"] ;
68 -> 70 ;
71 [label="Age <= 60.0\ngini = 0.48\nsamples = 197\nvalue = [79, 118]\nclass = Yes"] ;
29 -> 71 ;
72 [label="Age <= 42.5\ngini = 0.486\nsamples = 190\nvalue = [79, 111]\nclass = Yes"] ;
71 -> 72 ;
73 [label="Duration <= 31.0\ngini = 0.465\nsamples = 152\nvalue = [56, 96]\nclass = Yes"] ;
72 -> 73 ;
74 [label="Duration <= 23.5\ngini = 0.434\nsamples = 110\nvalue = [35, 75]\nclass = Yes"] ;
73 -> 74 ;
75 [label="Duration <= 8.5\ngini = 0.455\nsamples = 97\nvalue = [34, 63]\nclass = Yes"] ;
74 -> 75 ;
76 [label="Age <= 22.5\ngini = 0.165\nsamples = 11\nvalue = [1, 10]\nclass = Yes"] ;
75 -> 76 ;
77 [label="gini = 0.0\nsamples = 1\nvalue = [1, 0]\nclass = No"] ;
76 -> 77 ;
78 [label="gini = 0.0\nsamples = 10\nvalue = [0, 10]\nclass = Yes"] ;
76 -> 78 ;
79 [label="Commision <= 10.44\ngini = 0.473\nsamples = 86\nvalue = [33, 53]\nclass = Yes"] ;
75 -> 79 ;
80 [label="Age <= 21.5\ngini = 0.487\nsamples = 74\nvalue = [31, 43]\nclass = Yes"] ;
79 -> 80 ;
81 [label="gini = 0.0\nsamples = 3\nvalue = [0, 3]\nclass = Yes"] ;
80 -> 81 ;
82 [label="Age <= 27.5\ngini = 0.492\nsamples = 71\nvalue = [31, 40]\nclass = Yes"] ;
80 -> 82 ;
83 [label="Duration <= 14.5\ngini = 0.486\nsamples = 24\nvalue = [14, 10]\nclass = No"] ;
82 -> 83 ;
84 [label="Sales <= 34.125\ngini = 0.49\nsamples = 14\nvalue = [6, 8]\nclass = Yes"] ;
83 -> 84 ;
85 [label="Commision <= 7.065\ngini = 0.496\nsamples = 11\nvalue = [6, 5]\nclass = No"] ;
84 -> 85 ;
86 [label="Product Name <= 2.0\ngini = 0.469\nsamples = 8\nvalue = [3, 5]\nclass = Yes"] ;
85 -> 86 ;
87 [label="Duration <= 11.0\ngini = 0.408\nsamples = 7\nvalue = [2, 5]\nclass = Yes"] ;
86 -> 87 ;
88 [label="Age <= 25.0\ngini = 0.5\nsamples = 4\nvalue = [2, 2]\nclass = No"] ;
87 -> 88 ;
89 [label="gini = 0.0\nsamples = 2\nvalue = [0, 2]\nclass = Yes"] ;
88 -> 89 ;
90 [label="gini = 0.0\nsamples = 2\nvalue = [2, 0]\nclass = No"] ;
88 -> 90 ;
91 [label="gini = 0.0\nsamples = 3\nvalue = [0, 3]\nclass = Yes"] ;
87 -> 91 ;
92 [label="gini = 0.0\nsamples = 1\nvalue = [1, 0]\nclass = No"] ;
86 -> 92 ;
93 [label="gini = 0.0\nsamples = 3\nvalue = [3, 0]\nclass = No"] ;
85 -> 93 ;
94 [label="gini = 0.0\nsamples = 3\nvalue = [0, 3]\nclass = Yes"] ;
84 -> 94 ;
95 [label="Product Name <= 2.0\ngini = 0.32\nsamples = 10\nvalue = [8, 2]\nclass = No"] ;
83 -> 95 ;
96 [label="gini = 0.0\nsamples = 6\nvalue = [6, 0]\nclass = No"] ;
95 -> 96 ;
97 [label="Age <= 25.0\ngini = 0.5\nsamples = 4\nvalue = [2, 2]\nclass = No"] ;
95 -> 97 ;
98 [label="Sales <= 36.25\ngini = 0.444\nsamples = 3\nvalue = [1, 2]\nclass = Yes"] ;
97 -> 98 ;
99 [label="gini = 0.0\nsamples = 2\nvalue = [0, 2]\nclass = Yes"] ;
98 -> 99 ;
100 [label="gini = 0.0\nsamples = 1\nvalue = [1, 0]\nclass = No"] ;
98 -> 100 ;
101 [label="gini = 0.0\nsamples = 1\nvalue = [1, 0]\nclass = No"] ;
97 -> 101 ;
102 [label="Age <= 30.5\ngini = 0.462\nsamples = 47\nvalue = [17, 30]\nclass = Yes"] ;
82 -> 102 ;
103 [label="Sales <= 19.25\ngini = 0.351\nsamples = 22\nvalue = [5, 17]\nclass = Yes"] ;
102 -> 103 ;
104 [label="gini = 0.0\nsamples = 2\nvalue = [2, 0]\nclass = No"] ;
103 -> 104 ;
105 [label="Sales <= 41.0\ngini = 0.255\nsamples = 20\nvalue = [3, 17]\nclass = Yes"] ;
103 -> 105 ;
106 [label="Duration <= 12.5\ngini = 0.188\nsamples = 19\nvalue = [2, 17]\nclass = Yes"] ;
105 -> 106 ;
107 [label="Duration <= 11.5\ngini = 0.346\nsamples = 9\nvalue = [2, 7]\nclass = Yes"] ;
106 -> 107 ;
108 [label="gini = 0.0\nsamples = 6\nvalue = [0, 6]\nclass = Yes"] ;
107 -> 108 ;
109 [label="Age <= 28.5\ngini = 0.444\nsamples = 3\nvalue = [2, 1]\nclass = No"] ;
107 -> 109 ;
110 [label="gini = 0.0\nsamples = 1\nvalue = [0, 1]\nclass = Yes"] ;
109 -> 110 ;
111 [label="gini = 0.0\nsamples = 2\nvalue = [2, 0]\nclass = No"] ;
109 -> 111 ;
112 [label="gini = 0.0\nsamples = 10\nvalue = [0, 10]\nclass = Yes"] ;
106 -> 112 ;
113 [label="gini = 0.0\nsamples = 1\nvalue = [1, 0]\nclass = No"] ;
105 -> 113 ;
114 [label="Age <= 41.5\ngini = 0.499\nsamples = 25\nvalue = [12, 13]\nclass = Yes"] ;
102 -> 114 ;
115 [label="Sales <= 20.5\ngini = 0.499\nsamples = 23\nvalue = [12, 11]\nclass = No"] ;
114 -> 115 ;
116 [label="Duration <= 18.0\ngini = 0.375\nsamples = 8\nvalue = [6, 2]\nclass = No"] ;
115 -> 116 ;
117 [label="Product Name <= 2.0\ngini = 0.245\nsamples = 7\nvalue = [6, 1]\nclass = No"] ;
116 -> 117 ;
118 [label="gini = 0.0\nsamples = 5\nvalue = [5, 0]\nclass = No"] ;
117 -> 118 ;
119 [label="Duration <= 11.5\ngini = 0.5\nsamples = 2\nvalue = [1, 1]\nclass = No"] ;
117 -> 119 ;
120 [label="gini = 0.0\nsamples = 1\nvalue = [1, 0]\nclass = No"] ;
119 -> 120 ;
121 [label="gini = 0.0\nsamples = 1\nvalue = [0, 1]\nclass = Yes"] ;
119 -> 121 ;
122 [label="gini = 0.0\nsamples = 1\nvalue = [0, 1]\nclass = Yes"] ;
116 -> 122 ;
123 [label="Age <= 37.5\ngini = 0.48\nsamples = 15\nvalue = [6, 9]\nclass = Yes"] ;
115 -> 123 ;
124 [label="Age <= 32.5\ngini = 0.5\nsamples = 12\nvalue = [6, 6]\nclass = No"] ;
123 -> 124 ;
125 [label="Duration <= 16.5\ngini = 0.408\nsamples = 7\nvalue = [2, 5]\nclass = Yes"] ;
124 -> 125 ;
126 [label="Age <= 31.5\ngini = 0.278\nsamples = 6\nvalue = [1, 5]\nclass = Yes"] ;
125 -> 126 ;
127 [label="Duration <= 10.0\ngini = 0.444\nsamples = 3\nvalue = [1, 2]\nclass = Yes"] ;
126 -> 127 ;
128 [label="gini = 0.0\nsamples = 1\nvalue = [1, 0]\nclass = No"] ;
127 -> 128 ;
129 [label="gini = 0.0\nsamples = 2\nvalue = [0, 2]\nclass = Yes"] ;
127 -> 129 ;
130 [label="gini = 0.0\nsamples = 3\nvalue = [0, 3]\nclass = Yes"] ;
126 -> 130 ;
131 [label="gini = 0.0\nsamples = 1\nvalue = [1, 0]\nclass = No"] ;
125 -> 131 ;
132 [label="Commision <= 7.065\ngini = 0.32\nsamples = 5\nvalue = [4, 1]\nclass = No"] ;
124 -> 132 ;
133 [label="Duration <= 10.5\ngini = 0.5\nsamples = 2\nvalue = [1, 1]\nclass = No"] ;
132 -> 133 ;
134 [label="gini = 0.0\nsamples = 1\nvalue = [1, 0]\nclass = No"] ;
133 -> 134 ;
135 [label="gini = 0.0\nsamples = 1\nvalue = [0, 1]\nclass = Yes"] ;
133 -> 135 ;
136 [label="gini = 0.0\nsamples = 3\nvalue = [3, 0]\nclass = No"] ;
132 -> 136 ;
137 [label="gini = 0.0\nsamples = 3\nvalue = [0, 3]\nclass = Yes"] ;
123 -> 137 ;
138 [label="gini = 0.0\nsamples = 2\nvalue = [0, 2]\nclass = Yes"] ;
114 -> 138 ;
139 [label="Duration <= 11.0\ngini = 0.278\nsamples = 12\nvalue = [2, 10]\nclass = Yes"] ;
79 -> 139 ;
140 [label="gini = 0.0\nsamples = 1\nvalue = [1, 0]\nclass = No"] ;
139 -> 140 ;
141 [label="Duration <= 21.5\ngini = 0.165\nsamples = 11\nvalue = [1, 10]\nclass = Yes"] ;
139 -> 141 ;
142 [label="gini = 0.0\nsamples = 10\nvalue = [0, 10]\nclass = Yes"] ;
141 -> 142 ;
143 [label="gini = 0.0\nsamples = 1\nvalue = [1, 0]\nclass = No"] ;
141 -> 143 ;
144 [label="Commision <= 11.565\ngini = 0.142\nsamples = 13\nvalue = [1, 12]\nclass = Yes"] ;
74 -> 144 ;
145 [label="gini = 0.0\nsamples = 10\nvalue = [0, 10]\nclass = Yes"] ;
144 -> 145 ;
146 [label="Commision <= 11.94\ngini = 0.444\nsamples = 3\nvalue = [1, 2]\nclass = Yes"] ;
144 -> 146 ;
147 [label="gini = 0.0\nsamples = 1\nvalue = [1, 0]\nclass = No"] ;
146 -> 147 ;
148 [label="gini = 0.0\nsamples = 2\nvalue = [0, 2]\nclass = Yes"] ;
146 -> 148 ;
149 [label="Sales <= 20.935\ngini = 0.5\nsamples = 42\nvalue = [21, 21]\nclass = No"] ;
73 -> 149 ;
150 [label="gini = 0.0\nsamples = 5\nvalue = [0, 5]\nclass = Yes"] ;
149 -> 150 ;
151 [label="Duration <= 35.0\ngini = 0.491\nsamples = 37\nvalue = [21, 16]\nclass = No"] ;
149 -> 151 ;
152 [label="gini = 0.0\nsamples = 4\nvalue = [4, 0]\nclass = No"] ;
151 -> 152 ;
153 [label="Sales <= 28.0\ngini = 0.5\nsamples = 33\nvalue = [17, 16]\nclass = No"] ;
151 -> 153 ;
154 [label="Age <= 29.0\ngini = 0.397\nsamples = 11\nvalue = [8, 3]\nclass = No"] ;
153 -> 154 ;
155 [label="gini = 0.0\nsamples = 4\nvalue = [4, 0]\nclass = No"] ;
154 -> 155 ;
156 [label="Sales <= 26.25\ngini = 0.49\nsamples = 7\nvalue = [4, 3]\nclass = No"] ;
154 -> 156 ;
157 [label="Duration <= 37.5\ngini = 0.48\nsamples = 5\nvalue = [2, 3]\nclass = Yes"] ;
156 -> 157 ;
158 [label="gini = 0.0\nsamples = 1\nvalue = [1, 0]\nclass = No"] ;
157 -> 158 ;
159 [label="Duration <= 76.0\ngini = 0.375\nsamples = 4\nvalue = [1, 3]\nclass = Yes"] ;
157 -> 159 ;
160 [label="gini = 0.0\nsamples = 3\nvalue = [0, 3]\nclass = Yes"] ;
159 -> 160 ;
161 [label="gini = 0.0\nsamples = 1\nvalue = [1, 0]\nclass = No"] ;
159 -> 161 ;
162 [label="gini = 0.0\nsamples = 2\nvalue = [2, 0]\nclass = No"] ;
156 -> 162 ;
163 [label="Sales <= 35.0\ngini = 0.483\nsamples = 22\nvalue = [9, 13]\nclass = Yes"] ;
153 -> 163 ;
164 [label="Commision <= 8.01\ngini = 0.298\nsamples = 11\nvalue = [2, 9]\nclass = Yes"] ;
163 -> 164 ;
165 [label="Age <= 29.0\ngini = 0.5\nsamples = 4\nvalue = [2, 2]\nclass = No"] ;
164 -> 165 ;
166 [label="gini = 0.0\nsamples = 2\nvalue = [2, 0]\nclass = No"] ;
165 -> 166 ;
167 [label="gini = 0.0\nsamples = 2\nvalue = [0, 2]\nclass = Yes"] ;
165 -> 167 ;
168 [label="gini = 0.0\nsamples = 7\nvalue = [0, 7]\nclass = Yes"] ;
164 -> 168 ;
169 [label="Age <= 34.0\ngini = 0.463\nsamples = 11\nvalue = [7, 4]\nclass = No"] ;
163 -> 169 ;
170 [label="Age <= 27.5\ngini = 0.42\nsamples = 10\nvalue = [7, 3]\nclass = No"] ;
169 -> 170 ;
171 [label="Age <= 26.5\ngini = 0.5\nsamples = 4\nvalue = [2, 2]\nclass = No"] ;
170 -> 171 ;
172 [label="gini = 0.0\nsamples = 2\nvalue = [2, 0]\nclass = No"] ;
171 -> 172 ;
173 [label="gini = 0.0\nsamples = 2\nvalue = [0, 2]\nclass = Yes"] ;
171 -> 173 ;
174 [label="Duration <= 44.5\ngini = 0.278\nsamples = 6\nvalue = [5, 1]\nclass = No"] ;
170 -> 174 ;
175 [label="Duration <= 42.5\ngini = 0.5\nsamples = 2\nvalue = [1, 1]\nclass = No"] ;
174 -> 175 ;
176 [label="gini = 0.0\nsamples = 1\nvalue = [1, 0]\nclass = No"] ;
175 -> 176 ;
177 [label="gini = 0.0\nsamples = 1\nvalue = [0, 1]\nclass = Yes"] ;
175 -> 177 ;
178 [label="gini = 0.0\nsamples = 4\nvalue = [4, 0]\nclass = No"] ;
174 -> 178 ;
179 [label="gini = 0.0\nsamples = 1\nvalue = [0, 1]\nclass = Yes"] ;
169 -> 179 ;
180 [label="Age <= 49.5\ngini = 0.478\nsamples = 38\nvalue = [23, 15]\nclass = No"] ;
72 -> 180 ;
181 [label="Duration <= 10.5\ngini = 0.32\nsamples = 20\nvalue = [16, 4]\nclass = No"] ;
180 -> 181 ;
182 [label="Age <= 46.5\ngini = 0.48\nsamples = 5\nvalue = [2, 3]\nclass = Yes"] ;
181 -> 182 ;
183 [label="gini = 0.0\nsamples = 3\nvalue = [0, 3]\nclass = Yes"] ;
182 -> 183 ;
184 [label="gini = 0.0\nsamples = 2\nvalue = [2, 0]\nclass = No"] ;
182 -> 184 ;
185 [label="Commision <= 11.885\ngini = 0.124\nsamples = 15\nvalue = [14, 1]\nclass = No"] ;
181 -> 185 ;
186 [label="gini = 0.0\nsamples = 14\nvalue = [14, 0]\nclass = No"] ;
185 -> 186 ;
187 [label="gini = 0.0\nsamples = 1\nvalue = [0, 1]\nclass = Yes"] ;
185 -> 187 ;
188 [label="Sales <= 23.5\ngini = 0.475\nsamples = 18\nvalue = [7, 11]\nclass = Yes"] ;
180 -> 188 ;
189 [label="Age <= 57.5\ngini = 0.408\nsamples = 7\nvalue = [5, 2]\nclass = No"] ;
188 -> 189 ;
190 [label="Sales <= 17.75\ngini = 0.278\nsamples = 6\nvalue = [5, 1]\nclass = No"] ;
189 -> 190 ;
191 [label="Duration <= 17.0\ngini = 0.5\nsamples = 2\nvalue = [1, 1]\nclass = No"] ;
190 -> 191 ;
192 [label="gini = 0.0\nsamples = 1\nvalue = [0, 1]\nclass = Yes"] ;
191 -> 192 ;
193 [label="gini = 0.0\nsamples = 1\nvalue = [1, 0]\nclass = No"] ;
191 -> 193 ;
194 [label="gini = 0.0\nsamples = 4\nvalue = [4, 0]\nclass = No"] ;
190 -> 194 ;
195 [label="gini = 0.0\nsamples = 1\nvalue = [0, 1]\nclass = Yes"] ;
189 -> 195 ;
196 [label="Duration <= 12.5\ngini = 0.298\nsamples = 11\nvalue = [2, 9]\nclass = Yes"] ;
188 -> 196 ;
197 [label="gini = 0.0\nsamples = 1\nvalue = [1, 0]\nclass = No"] ;
196 -> 197 ;
198 [label="Age <= 56.0\ngini = 0.18\nsamples = 10\nvalue = [1, 9]\nclass = Yes"] ;
196 -> 198 ;
199 [label="gini = 0.0\nsamples = 7\nvalue = [0, 7]\nclass = Yes"] ;
198 -> 199 ;
200 [label="Duration <= 29.0\ngini = 0.444\nsamples = 3\nvalue = [1, 2]\nclass = Yes"] ;
198 -> 200 ;
201 [label="gini = 0.0\nsamples = 2\nvalue = [0, 2]\nclass = Yes"] ;
200 -> 201 ;
202 [label="gini = 0.0\nsamples = 1\nvalue = [1, 0]\nclass = No"] ;
200 -> 202 ;
203 [label="gini = 0.0\nsamples = 7\nvalue = [0, 7]\nclass = Yes"] ;
71 -> 203 ;
204 [label="Product Name <= 3.5\ngini = 0.269\nsamples = 25\nvalue = [21, 4]\nclass = No"] ;
28 -> 204 ;
205 [label="Duration <= 27.5\ngini = 0.165\nsamples = 22\nvalue = [20, 2]\nclass = No"] ;
204 -> 205 ;
206 [label="gini = 0.0\nsamples = 18\nvalue = [18, 0]\nclass = No"] ;
205 -> 206 ;
207 [label="Sales <= 45.23\ngini = 0.5\nsamples = 4\nvalue = [2, 2]\nclass = No"] ;
205 -> 207 ;
208 [label="gini = 0.0\nsamples = 2\nvalue = [2, 0]\nclass = No"] ;
207 -> 208 ;
209 [label="gini = 0.0\nsamples = 2\nvalue = [0, 2]\nclass = Yes"] ;
207 -> 209 ;
210 [label="Duration <= 187.5\ngini = 0.444\nsamples = 3\nvalue = [1, 2]\nclass = Yes"] ;
204 -> 210 ;
211 [label="gini = 0.0\nsamples = 2\nvalue = [0, 2]\nclass = Yes"] ;
210 -> 211 ;
212 [label="gini = 0.0\nsamples = 1\nvalue = [1, 0]\nclass = No"] ;
210 -> 212 ;
213 [label="Duration <= 12.5\ngini = 0.371\nsamples = 301\nvalue = [74, 227]\nclass = Yes"] ;
1 -> 213 ;
214 [label="Commision <= 15.53\ngini = 0.165\nsamples = 11\nvalue = [10, 1]\nclass = No"] ;
213 -> 214 ;
215 [label="gini = 0.0\nsamples = 9\nvalue = [9, 0]\nclass = No"] ;
214 -> 215 ;
216 [label="Sales <= 65.625\ngini = 0.5\nsamples = 2\nvalue = [1, 1]\nclass = No"] ;
214 -> 216 ;
217 [label="gini = 0.0\nsamples = 1\nvalue = [0, 1]\nclass = Yes"] ;
216 -> 217 ;
218 [label="gini = 0.0\nsamples = 1\nvalue = [1, 0]\nclass = No"] ;
216 -> 218 ;
219 [label="Commision <= 53.165\ngini = 0.344\nsamples = 290\nvalue = [64, 226]\nclass = Yes"] ;
213 -> 219 ;
220 [label="Commision <= 49.925\ngini = 0.391\nsamples = 150\nvalue = [40, 110]\nclass = Yes"] ;
219 -> 220 ;
221 [label="Duration <= 383.5\ngini = 0.377\nsamples = 147\nvalue = [37, 110]\nclass = Yes"] ;
220 -> 221 ;
222 [label="Age <= 38.5\ngini = 0.366\nsamples = 145\nvalue = [35, 110]\nclass = Yes"] ;
221 -> 222 ;
223 [label="Age <= 34.5\ngini = 0.412\nsamples = 100\nvalue = [29, 71]\nclass = Yes"] ;
222 -> 223 ;
224 [label="Duration <= 16.5\ngini = 0.36\nsamples = 85\nvalue = [20, 65]\nclass = Yes"] ;
223 -> 224 ;
225 [label="gini = 0.0\nsamples = 12\nvalue = [0, 12]\nclass = Yes"] ;
224 -> 225 ;
226 [label="Age <= 20.5\ngini = 0.398\nsamples = 73\nvalue = [20, 53]\nclass = Yes"] ;
224 -> 226 ;
227 [label="gini = 0.0\nsamples = 2\nvalue = [2, 0]\nclass = No"] ;
226 -> 227 ;
228 [label="Age <= 32.5\ngini = 0.378\nsamples = 71\nvalue = [18, 53]\nclass = Yes"] ;
226 -> 228 ;
229 [label="Duration <= 19.5\ngini = 0.408\nsamples = 63\nvalue = [18, 45]\nclass = Yes"] ;
228 -> 229 ;
230 [label="gini = 0.0\nsamples = 2\nvalue = [2, 0]\nclass = No"] ;
229 -> 230 ;
231 [label="Commision <= 14.565\ngini = 0.387\nsamples = 61\nvalue = [16, 45]\nclass = Yes"] ;
229 -> 231 ;
232 [label="gini = 0.0\nsamples = 6\nvalue = [0, 6]\nclass = Yes"] ;
231 -> 232 ;
233 [label="Product Name <= 1.5\ngini = 0.413\nsamples = 55\nvalue = [16, 39]\nclass = Yes"] ;
231 -> 233 ;
234 [label="Sales <= 181.5\ngini = 0.486\nsamples = 24\nvalue = [10, 14]\nclass = Yes"] ;
233 -> 234 ;
235 [label="Sales <= 57.5\ngini = 0.444\nsamples = 21\nvalue = [7, 14]\nclass = Yes"] ;
234 -> 235 ;
236 [label="gini = 0.0\nsamples = 1\nvalue = [1, 0]\nclass = No"] ;
235 -> 236 ;
237 [label="Commision <= 17.385\ngini = 0.42\nsamples = 20\nvalue = [6, 14]\nclass = Yes"] ;
235 -> 237 ;
238 [label="gini = 0.0\nsamples = 6\nvalue = [0, 6]\nclass = Yes"] ;
237 -> 238 ;
239 [label="Sales <= 72.25\ngini = 0.49\nsamples = 14\nvalue = [6, 8]\nclass = Yes"] ;
237 -> 239 ;
240 [label="gini = 0.0\nsamples = 4\nvalue = [4, 0]\nclass = No"] ;
239 -> 240 ;
241 [label="Sales <= 94.25\ngini = 0.32\nsamples = 10\nvalue = [2, 8]\nclass = Yes"] ;
239 -> 241 ;
242 [label="gini = 0.0\nsamples = 5\nvalue = [0, 5]\nclass = Yes"] ;
241 -> 242 ;
243 [label="Duration <= 67.0\ngini = 0.48\nsamples = 5\nvalue = [2, 3]\nclass = Yes"] ;
241 -> 243 ;
244 [label="gini = 0.0\nsamples = 2\nvalue = [2, 0]\nclass = No"] ;
243 -> 244 ;
245 [label="gini = 0.0\nsamples = 3\nvalue = [0, 3]\nclass = Yes"] ;
243 -> 245 ;
246 [label="gini = 0.0\nsamples = 3\nvalue = [3, 0]\nclass = No"] ;
234 -> 246 ;
247 [label="Age <= 22.5\ngini = 0.312\nsamples = 31\nvalue = [6, 25]\nclass = Yes"] ;
233 -> 247 ;
248 [label="gini = 0.0\nsamples = 1\nvalue = [1, 0]\nclass = No"] ;
247 -> 248 ;
249 [label="Duration <= 45.0\ngini = 0.278\nsamples = 30\nvalue = [5, 25]\nclass = Yes"] ;
247 -> 249 ;
250 [label="Duration <= 43.5\ngini = 0.426\nsamples = 13\nvalue = [4, 9]\nclass = Yes"] ;
249 -> 250 ;
251 [label="Commision <= 21.63\ngini = 0.375\nsamples = 12\nvalue = [3, 9]\nclass = Yes"] ;
250 -> 251 ;
252 [label="Sales <= 83.0\ngini = 0.444\nsamples = 9\nvalue = [3, 6]\nclass = Yes"] ;
251 -> 252 ;
253 [label="Duration <= 35.5\ngini = 0.375\nsamples = 8\nvalue = [2, 6]\nclass = Yes"] ;
252 -> 253 ;
254 [label="Duration <= 31.0\ngini = 0.48\nsamples = 5\nvalue = [2, 3]\nclass = Yes"] ;
253 -> 254 ;
255 [label="Sales <= 67.75\ngini = 0.375\nsamples = 4\nvalue = [1, 3]\nclass = Yes"] ;
254 -> 255 ;
256 [label="Age <= 29.0\ngini = 0.5\nsamples = 2\nvalue = [1, 1]\nclass = No"] ;
255 -> 256 ;
257 [label="gini = 0.0\nsamples = 1\nvalue = [1, 0]\nclass = No"] ;
256 -> 257 ;
258 [label="gini = 0.0\nsamples = 1\nvalue = [0, 1]\nclass = Yes"] ;
256 -> 258 ;
259 [label="gini = 0.0\nsamples = 2\nvalue = [0, 2]\nclass = Yes"] ;
255 -> 259 ;
260 [label="gini = 0.0\nsamples = 1\nvalue = [1, 0]\nclass = No"] ;
254 -> 260 ;
261 [label="gini = 0.0\nsamples = 3\nvalue = [0, 3]\nclass = Yes"] ;
253 -> 261 ;
262 [label="gini = 0.0\nsamples = 1\nvalue = [1, 0]\nclass = No"] ;
252 -> 262 ;
263 [label="gini = 0.0\nsamples = 3\nvalue = [0, 3]\nclass = Yes"] ;
251 -> 263 ;
264 [label="gini = 0.0\nsamples = 1\nvalue = [1, 0]\nclass = No"] ;
250 -> 264 ;
265 [label="Sales <= 183.3\ngini = 0.111\nsamples = 17\nvalue = [1, 16]\nclass = Yes"] ;
249 -> 265 ;
266 [label="gini = 0.0\nsamples = 11\nvalue = [0, 11]\nclass = Yes"] ;
265 -> 266 ;
267 [label="Age <= 27.0\ngini = 0.278\nsamples = 6\nvalue = [1, 5]\nclass = Yes"] ;
265 -> 267 ;
268 [label="gini = 0.5\nsamples = 2\nvalue = [1, 1]\nclass = No"] ;
267 -> 268 ;
269 [label="gini = 0.0\nsamples = 4\nvalue = [0, 4]\nclass = Yes"] ;
267 -> 269 ;
270 [label="gini = 0.0\nsamples = 8\nvalue = [0, 8]\nclass = Yes"] ;
228 -> 270 ;
271 [label="Duration <= 84.0\ngini = 0.48\nsamples = 15\nvalue = [9, 6]\nclass = No"] ;
223 -> 271 ;
272 [label="Sales <= 67.75\ngini = 0.375\nsamples = 12\nvalue = [9, 3]\nclass = No"] ;
271 -> 272 ;
273 [label="Sales <= 57.25\ngini = 0.5\nsamples = 4\nvalue = [2, 2]\nclass = No"] ;
272 -> 273 ;
274 [label="gini = 0.0\nsamples = 2\nvalue = [2, 0]\nclass = No"] ;
273 -> 274 ;
275 [label="gini = 0.0\nsamples = 2\nvalue = [0, 2]\nclass = Yes"] ;
273 -> 275 ;
276 [label="Age <= 37.5\ngini = 0.219\nsamples = 8\nvalue = [7, 1]\nclass = No"] ;
272 -> 276 ;
277 [label="gini = 0.0\nsamples = 6\nvalue = [6, 0]\nclass = No"] ;
276 -> 277 ;
278 [label="Sales <= 140.725\ngini = 0.5\nsamples = 2\nvalue = [1, 1]\nclass = No"] ;
276 -> 278 ;
279 [label="gini = 0.0\nsamples = 1\nvalue = [0, 1]\nclass = Yes"] ;
278 -> 279 ;
280 [label="gini = 0.0\nsamples = 1\nvalue = [1, 0]\nclass = No"] ;
278 -> 280 ;
281 [label="gini = 0.0\nsamples = 3\nvalue = [0, 3]\nclass = Yes"] ;
271 -> 281 ;
282 [label="Commision <= 6.68\ngini = 0.231\nsamples = 45\nvalue = [6, 39]\nclass = Yes"] ;
222 -> 282 ;
283 [label="gini = 0.0\nsamples = 1\nvalue = [1, 0]\nclass = No"] ;
282 -> 283 ;
284 [label="Commision <= 38.625\ngini = 0.201\nsamples = 44\nvalue = [5, 39]\nclass = Yes"] ;
282 -> 284 ;
285 [label="Duration <= 39.0\ngini = 0.111\nsamples = 34\nvalue = [2, 32]\nclass = Yes"] ;
284 -> 285 ;
286 [label="Duration <= 35.5\ngini = 0.231\nsamples = 15\nvalue = [2, 13]\nclass = Yes"] ;
285 -> 286 ;
287 [label="Sales <= 65.515\ngini = 0.133\nsamples = 14\nvalue = [1, 13]\nclass = Yes"] ;
286 -> 287 ;
288 [label="Sales <= 61.215\ngini = 0.32\nsamples = 5\nvalue = [1, 4]\nclass = Yes"] ;
287 -> 288 ;
289 [label="gini = 0.0\nsamples = 4\nvalue = [0, 4]\nclass = Yes"] ;
288 -> 289 ;
290 [label="gini = 0.0\nsamples = 1\nvalue = [1, 0]\nclass = No"] ;
288 -> 290 ;
291 [label="gini = 0.0\nsamples = 9\nvalue = [0, 9]\nclass = Yes"] ;
287 -> 291 ;
292 [label="gini = 0.0\nsamples = 1\nvalue = [1, 0]\nclass = No"] ;
286 -> 292 ;
293 [label="gini = 0.0\nsamples = 19\nvalue = [0, 19]\nclass = Yes"] ;
285 -> 293 ;
294 [label="Age <= 55.0\ngini = 0.42\nsamples = 10\nvalue = [3, 7]\nclass = Yes"] ;
284 -> 294 ;
295 [label="Age <= 44.5\ngini = 0.245\nsamples = 7\nvalue = [1, 6]\nclass = Yes"] ;
294 -> 295 ;
296 [label="Age <= 41.5\ngini = 0.5\nsamples = 2\nvalue = [1, 1]\nclass = No"] ;
295 -> 296 ;
297 [label="gini = 0.0\nsamples = 1\nvalue = [0, 1]\nclass = Yes"] ;
296 -> 297 ;
298 [label="gini = 0.0\nsamples = 1\nvalue = [1, 0]\nclass = No"] ;
296 -> 298 ;
299 [label="gini = 0.0\nsamples = 5\nvalue = [0, 5]\nclass = Yes"] ;
295 -> 299 ;
300 [label="Sales <= 176.425\ngini = 0.444\nsamples = 3\nvalue = [2, 1]\nclass = No"] ;
294 -> 300 ;
301 [label="gini = 0.0\nsamples = 2\nvalue = [2, 0]\nclass = No"] ;
300 -> 301 ;
302 [label="gini = 0.0\nsamples = 1\nvalue = [0, 1]\nclass = Yes"] ;
300 -> 302 ;
303 [label="gini = 0.0\nsamples = 2\nvalue = [2, 0]\nclass = No"] ;
221 -> 303 ;
304 [label="gini = 0.0\nsamples = 3\nvalue = [3, 0]\nclass = No"] ;
220 -> 304 ;
305 [label="Duration <= 80.0\ngini = 0.284\nsamples = 140\nvalue = [24, 116]\nclass = Yes"] ;
219 -> 305 ;
306 [label="gini = 0.0\nsamples = 2\nvalue = [2, 0]\nclass = No"] ;
305 -> 306 ;
307 [label="Sales <= 523.0\ngini = 0.268\nsamples = 138\nvalue = [22, 116]\nclass = Yes"] ;
305 -> 307 ;
308 [label="Age <= 53.5\ngini = 0.26\nsamples = 137\nvalue = [21, 116]\nclass = Yes"] ;
307 -> 308 ;
309 [label="Age <= 30.5\ngini = 0.228\nsamples = 122\nvalue = [16, 106]\nclass = Yes"] ;
308 -> 309 ;
310 [label="Commision <= 58.605\ngini = 0.074\nsamples = 26\nvalue = [1, 25]\nclass = Yes"] ;
309 -> 310 ;
311 [label="Duration <= 366.0\ngini = 0.219\nsamples = 8\nvalue = [1, 7]\nclass = Yes"] ;
310 -> 311 ;
312 [label="Age <= 28.0\ngini = 0.5\nsamples = 2\nvalue = [1, 1]\nclass = No"] ;
311 -> 312 ;
313 [label="gini = 0.0\nsamples = 1\nvalue = [1, 0]\nclass = No"] ;
312 -> 313 ;
314 [label="gini = 0.0\nsamples = 1\nvalue = [0, 1]\nclass = Yes"] ;
312 -> 314 ;
315 [label="gini = 0.0\nsamples = 6\nvalue = [0, 6]\nclass = Yes"] ;
311 -> 315 ;
316 [label="gini = 0.0\nsamples = 18\nvalue = [0, 18]\nclass = Yes"] ;
310 -> 316 ;
317 [label="Age <= 33.5\ngini = 0.264\nsamples = 96\nvalue = [15, 81]\nclass = Yes"] ;
309 -> 317 ;
318 [label="Sales <= 275.475\ngini = 0.434\nsamples = 22\nvalue = [7, 15]\nclass = Yes"] ;
317 -> 318 ;
319 [label="Commision <= 64.005\ngini = 0.465\nsamples = 19\nvalue = [7, 12]\nclass = Yes"] ;
318 -> 319 ;
320 [label="Sales <= 236.45\ngini = 0.415\nsamples = 17\nvalue = [5, 12]\nclass = Yes"] ;
319 -> 320 ;
321 [label="Duration <= 365.5\ngini = 0.49\nsamples = 7\nvalue = [3, 4]\nclass = Yes"] ;
320 -> 321 ;
322 [label="gini = 0.0\nsamples = 2\nvalue = [0, 2]\nclass = Yes"] ;
321 -> 322 ;
323 [label="Age <= 32.5\ngini = 0.48\nsamples = 5\nvalue = [3, 2]\nclass = No"] ;
321 -> 323 ;
324 [label="Duration <= 382.0\ngini = 0.375\nsamples = 4\nvalue = [3, 1]\nclass = No"] ;
323 -> 324 ;
325 [label="gini = 0.0\nsamples = 2\nvalue = [2, 0]\nclass = No"] ;
324 -> 325 ;
326 [label="Age <= 31.5\ngini = 0.5\nsamples = 2\nvalue = [1, 1]\nclass = No"] ;
324 -> 326 ;
327 [label="gini = 0.0\nsamples = 1\nvalue = [0, 1]\nclass = Yes"] ;
326 -> 327 ;
328 [label="gini = 0.0\nsamples = 1\nvalue = [1, 0]\nclass = No"] ;
326 -> 328 ;
329 [label="gini = 0.0\nsamples = 1\nvalue = [0, 1]\nclass = Yes"] ;
323 -> 329 ;
330 [label="Age <= 32.5\ngini = 0.32\nsamples = 10\nvalue = [2, 8]\nclass = Yes"] ;
320 -> 330 ;
331 [label="Age <= 31.5\ngini = 0.198\nsamples = 9\nvalue = [1, 8]\nclass = Yes"] ;
330 -> 331 ;
332 [label="gini = 0.0\nsamples = 5\nvalue = [0, 5]\nclass = Yes"] ;
331 -> 332 ;
333 [label="Duration <= 367.5\ngini = 0.375\nsamples = 4\nvalue = [1, 3]\nclass = Yes"] ;
331 -> 333 ;
334 [label="gini = 0.0\nsamples = 2\nvalue = [0, 2]\nclass = Yes"] ;
333 -> 334 ;
335 [label="gini = 0.5\nsamples = 2\nvalue = [1, 1]\nclass = No"] ;
333 -> 335 ;
336 [label="gini = 0.0\nsamples = 1\nvalue = [1, 0]\nclass = No"] ;
330 -> 336 ;
337 [label="gini = 0.0\nsamples = 2\nvalue = [2, 0]\nclass = No"] ;
319 -> 337 ;
338 [label="gini = 0.0\nsamples = 3\nvalue = [0, 3]\nclass = Yes"] ;
318 -> 338 ;
339 [label="Duration <= 394.5\ngini = 0.193\nsamples = 74\nvalue = [8, 66]\nclass = Yes"] ;
317 -> 339 ;
340 [label="Age <= 40.5\ngini = 0.159\nsamples = 69\nvalue = [6, 63]\nclass = Yes"] ;
339 -> 340 ;
341 [label="gini = 0.0\nsamples = 27\nvalue = [0, 27]\nclass = Yes"] ;
340 -> 341 ;
342 [label="Age <= 43.5\ngini = 0.245\nsamples = 42\nvalue = [6, 36]\nclass = Yes"] ;
340 -> 342 ;
343 [label="Duration <= 365.5\ngini = 0.391\nsamples = 15\nvalue = [4, 11]\nclass = Yes"] ;
342 -> 343 ;
344 [label="Sales <= 234.425\ngini = 0.49\nsamples = 7\nvalue = [3, 4]\nclass = Yes"] ;
343 -> 344 ;
345 [label="gini = 0.0\nsamples = 2\nvalue = [2, 0]\nclass = No"] ;
344 -> 345 ;
346 [label="Sales <= 292.925\ngini = 0.32\nsamples = 5\nvalue = [1, 4]\nclass = Yes"] ;
344 -> 346 ;
347 [label="gini = 0.0\nsamples = 3\nvalue = [0, 3]\nclass = Yes"] ;
346 -> 347 ;
348 [label="Age <= 42.5\ngini = 0.5\nsamples = 2\nvalue = [1, 1]\nclass = No"] ;
346 -> 348 ;
349 [label="gini = 0.0\nsamples = 1\nvalue = [1, 0]\nclass = No"] ;
348 -> 349 ;
350 [label="gini = 0.0\nsamples = 1\nvalue = [0, 1]\nclass = Yes"] ;
348 -> 350 ;
351 [label="Sales <= 246.175\ngini = 0.219\nsamples = 8\nvalue = [1, 7]\nclass = Yes"] ;
343 -> 351 ;
352 [label="gini = 0.0\nsamples = 5\nvalue = [0, 5]\nclass = Yes"] ;
351 -> 352 ;
353 [label="Age <= 42.0\ngini = 0.444\nsamples = 3\nvalue = [1, 2]\nclass = Yes"] ;
351 -> 353 ;
354 [label="gini = 0.0\nsamples = 2\nvalue = [0, 2]\nclass = Yes"] ;
353 -> 354 ;
355 [label="gini = 0.0\nsamples = 1\nvalue = [1, 0]\nclass = No"] ;
353 -> 355 ;
356 [label="Age <= 49.5\ngini = 0.137\nsamples = 27\nvalue = [2, 25]\nclass = Yes"] ;
342 -> 356 ;
357 [label="gini = 0.0\nsamples = 18\nvalue = [0, 18]\nclass = Yes"] ;
356 -> 357 ;
358 [label="Age <= 51.0\ngini = 0.346\nsamples = 9\nvalue = [2, 7]\nclass = Yes"] ;
356 -> 358 ;
359 [label="gini = 0.0\nsamples = 1\nvalue = [1, 0]\nclass = No"] ;
358 -> 359 ;
360 [label="Duration <= 367.5\ngini = 0.219\nsamples = 8\nvalue = [1, 7]\nclass = Yes"] ;
358 -> 360 ;
361 [label="gini = 0.0\nsamples = 5\nvalue = [0, 5]\nclass = Yes"] ;
360 -> 361 ;
362 [label="Duration <= 368.5\ngini = 0.444\nsamples = 3\nvalue = [1, 2]\nclass = Yes"] ;
360 -> 362 ;
363 [label="gini = 0.0\nsamples = 1\nvalue = [1, 0]\nclass = No"] ;
362 -> 363 ;
364 [label="gini = 0.0\nsamples = 2\nvalue = [0, 2]\nclass = Yes"] ;
362 -> 364 ;
365 [label="Age <= 42.5\ngini = 0.48\nsamples = 5\nvalue = [2, 3]\nclass = Yes"] ;
339 -> 365 ;
366 [label="Commision <= 71.57\ngini = 0.444\nsamples = 3\nvalue = [2, 1]\nclass = No"] ;
365 -> 366 ;
367 [label="gini = 0.0\nsamples = 2\nvalue = [2, 0]\nclass = No"] ;
366 -> 367 ;
368 [label="gini = 0.0\nsamples = 1\nvalue = [0, 1]\nclass = Yes"] ;
366 -> 368 ;
369 [label="gini = 0.0\nsamples = 2\nvalue = [0, 2]\nclass = Yes"] ;
365 -> 369 ;
370 [label="Commision <= 70.025\ngini = 0.444\nsamples = 15\nvalue = [5, 10]\nclass = Yes"] ;
308 -> 370 ;
371 [label="Age <= 63.5\ngini = 0.198\nsamples = 9\nvalue = [1, 8]\nclass = Yes"] ;
370 -> 371 ;
372 [label="Age <= 60.0\ngini = 0.375\nsamples = 4\nvalue = [1, 3]\nclass = Yes"] ;
371 -> 372 ;
373 [label="gini = 0.0\nsamples = 2\nvalue = [0, 2]\nclass = Yes"] ;
372 -> 373 ;
374 [label="Commision <= 58.605\ngini = 0.5\nsamples = 2\nvalue = [1, 1]\nclass = No"] ;
372 -> 374 ;
375 [label="gini = 0.0\nsamples = 1\nvalue = [1, 0]\nclass = No"] ;
374 -> 375 ;
376 [label="gini = 0.0\nsamples = 1\nvalue = [0, 1]\nclass = Yes"] ;
374 -> 376 ;
377 [label="gini = 0.0\nsamples = 5\nvalue = [0, 5]\nclass = Yes"] ;
371 -> 377 ;
378 [label="Age <= 58.5\ngini = 0.444\nsamples = 6\nvalue = [4, 2]\nclass = No"] ;
370 -> 378 ;
379 [label="gini = 0.0\nsamples = 3\nvalue = [3, 0]\nclass = No"] ;
378 -> 379 ;
380 [label="Age <= 64.5\ngini = 0.444\nsamples = 3\nvalue = [1, 2]\nclass = Yes"] ;
378 -> 380 ;
381 [label="gini = 0.0\nsamples = 2\nvalue = [0, 2]\nclass = Yes"] ;
380 -> 381 ;
382 [label="gini = 0.0\nsamples = 1\nvalue = [1, 0]\nclass = No"] ;
380 -> 382 ;
383 [label="gini = 0.0\nsamples = 1\nvalue = [1, 0]\nclass = No"] ;
307 -> 383 ;
384 [label="Sales <= 32.5\ngini = 0.283\nsamples = 1459\nvalue = [1210, 249]\nclass = No"] ;
0 -> 384 [labeldistance=2.5, labelangle=-45, headlabel="False"] ;
385 [label="Duration <= 11.5\ngini = 0.171\nsamples = 792\nvalue = [717, 75]\nclass = No"] ;
384 -> 385 ;
386 [label="Age <= 21.0\ngini = 0.071\nsamples = 271\nvalue = [261, 10]\nclass = No"] ;
385 -> 386 ;
387 [label="gini = 0.0\nsamples = 1\nvalue = [0, 1]\nclass = Yes"] ;
386 -> 387 ;
388 [label="Channel <= 0.5\ngini = 0.064\nsamples = 270\nvalue = [261, 9]\nclass = No"] ;
386 -> 388 ;
389 [label="Age <= 27.5\ngini = 0.5\nsamples = 2\nvalue = [1, 1]\nclass = No"] ;
388 -> 389 ;
390 [label="gini = 0.0\nsamples = 1\nvalue = [0, 1]\nclass = Yes"] ;
389 -> 390 ;
391 [label="gini = 0.0\nsamples = 1\nvalue = [1, 0]\nclass = No"] ;
389 -> 391 ;
392 [label="Age <= 44.5\ngini = 0.058\nsamples = 268\nvalue = [260, 8]\nclass = No"] ;
388 -> 392 ;
393 [label="Commision <= 17.525\ngini = 0.027\nsamples = 221\nvalue = [218, 3]\nclass = No"] ;
392 -> 393 ;
394 [label="Age <= 38.5\ngini = 0.019\nsamples = 212\nvalue = [210, 2]\nclass = No"] ;
393 -> 394 ;
395 [label="Sales <= 17.5\ngini = 0.011\nsamples = 187\nvalue = [186, 1]\nclass = No"] ;
394 -> 395 ;
396 [label="Sales <= 16.5\ngini = 0.025\nsamples = 80\nvalue = [79, 1]\nclass = No"] ;
395 -> 396 ;
397 [label="gini = 0.0\nsamples = 78\nvalue = [78, 0]\nclass = No"] ;
396 -> 397 ;
398 [label="Duration <= 8.0\ngini = 0.5\nsamples = 2\nvalue = [1, 1]\nclass = No"] ;
396 -> 398 ;
399 [label="gini = 0.0\nsamples = 1\nvalue = [0, 1]\nclass = Yes"] ;
398 -> 399 ;
400 [label="gini = 0.0\nsamples = 1\nvalue = [1, 0]\nclass = No"] ;
398 -> 400 ;
401 [label="gini = 0.0\nsamples = 107\nvalue = [107, 0]\nclass = No"] ;
395 -> 401 ;
402 [label="Duration <= 3.5\ngini = 0.077\nsamples = 25\nvalue = [24, 1]\nclass = No"] ;
394 -> 402 ;
403 [label="Sales <= 19.0\ngini = 0.278\nsamples = 6\nvalue = [5, 1]\nclass = No"] ;
402 -> 403 ;
404 [label="gini = 0.0\nsamples = 5\nvalue = [5, 0]\nclass = No"] ;
403 -> 404 ;
405 [label="gini = 0.0\nsamples = 1\nvalue = [0, 1]\nclass = Yes"] ;
403 -> 405 ;
406 [label="gini = 0.0\nsamples = 19\nvalue = [19, 0]\nclass = No"] ;
402 -> 406 ;
407 [label="Age <= 26.5\ngini = 0.198\nsamples = 9\nvalue = [8, 1]\nclass = No"] ;
393 -> 407 ;
408 [label="Duration <= 8.5\ngini = 0.5\nsamples = 2\nvalue = [1, 1]\nclass = No"] ;
407 -> 408 ;
409 [label="gini = 0.0\nsamples = 1\nvalue = [1, 0]\nclass = No"] ;
408 -> 409 ;
410 [label="gini = 0.0\nsamples = 1\nvalue = [0, 1]\nclass = Yes"] ;
408 -> 410 ;
411 [label="gini = 0.0\nsamples = 7\nvalue = [7, 0]\nclass = No"] ;
407 -> 411 ;
412 [label="Age <= 47.5\ngini = 0.19\nsamples = 47\nvalue = [42, 5]\nclass = No"] ;
392 -> 412 ;
413 [label="Sales <= 15.0\ngini = 0.49\nsamples = 7\nvalue = [4, 3]\nclass = No"] ;
412 -> 413 ;
414 [label="gini = 0.0\nsamples = 2\nvalue = [0, 2]\nclass = Yes"] ;
413 -> 414 ;
415 [label="Age <= 46.0\ngini = 0.32\nsamples = 5\nvalue = [4, 1]\nclass = No"] ;
413 -> 415 ;
416 [label="gini = 0.0\nsamples = 3\nvalue = [3, 0]\nclass = No"] ;
415 -> 416 ;
417 [label="Destination <= 0.5\ngini = 0.5\nsamples = 2\nvalue = [1, 1]\nclass = No"] ;
415 -> 417 ;
418 [label="gini = 0.0\nsamples = 1\nvalue = [0, 1]\nclass = Yes"] ;
417 -> 418 ;
419 [label="gini = 0.0\nsamples = 1\nvalue = [1, 0]\nclass = No"] ;
417 -> 419 ;
420 [label="Duration <= 10.5\ngini = 0.095\nsamples = 40\nvalue = [38, 2]\nclass = No"] ;
412 -> 420 ;
421 [label="Destination <= 0.5\ngini = 0.053\nsamples = 37\nvalue = [36, 1]\nclass = No"] ;
420 -> 421 ;
422 [label="gini = 0.0\nsamples = 33\nvalue = [33, 0]\nclass = No"] ;
421 -> 422 ;
423 [label="Destination <= 1.5\ngini = 0.375\nsamples = 4\nvalue = [3, 1]\nclass = No"] ;
421 -> 423 ;
424 [label="gini = 0.0\nsamples = 1\nvalue = [0, 1]\nclass = Yes"] ;
423 -> 424 ;
425 [label="gini = 0.0\nsamples = 3\nvalue = [3, 0]\nclass = No"] ;
423 -> 425 ;
426 [label="Age <= 61.5\ngini = 0.444\nsamples = 3\nvalue = [2, 1]\nclass = No"] ;
420 -> 426 ;
427 [label="gini = 0.0\nsamples = 2\nvalue = [2, 0]\nclass = No"] ;
426 -> 427 ;
428 [label="gini = 0.0\nsamples = 1\nvalue = [0, 1]\nclass = Yes"] ;
426 -> 428 ;
429 [label="Sales <= 11.5\ngini = 0.218\nsamples = 521\nvalue = [456, 65]\nclass = No"] ;
385 -> 429 ;
430 [label="Duration <= 250.0\ngini = 0.075\nsamples = 102\nvalue = [98, 4]\nclass = No"] ;
429 -> 430 ;
431 [label="Destination <= 1.5\ngini = 0.058\nsamples = 101\nvalue = [98, 3]\nclass = No"] ;
430 -> 431 ;
432 [label="Age <= 51.0\ngini = 0.043\nsamples = 92\nvalue = [90, 2]\nclass = No"] ;
431 -> 432 ;
433 [label="Age <= 33.0\ngini = 0.024\nsamples = 82\nvalue = [81, 1]\nclass = No"] ;
432 -> 433 ;
434 [label="Age <= 31.5\ngini = 0.091\nsamples = 21\nvalue = [20, 1]\nclass = No"] ;
433 -> 434 ;
435 [label="gini = 0.0\nsamples = 19\nvalue = [19, 0]\nclass = No"] ;
434 -> 435 ;
436 [label="Duration <= 47.5\ngini = 0.5\nsamples = 2\nvalue = [1, 1]\nclass = No"] ;
434 -> 436 ;
437 [label="gini = 0.0\nsamples = 1\nvalue = [0, 1]\nclass = Yes"] ;
436 -> 437 ;
438 [label="gini = 0.0\nsamples = 1\nvalue = [1, 0]\nclass = No"] ;
436 -> 438 ;
439 [label="gini = 0.0\nsamples = 61\nvalue = [61, 0]\nclass = No"] ;
433 -> 439 ;
440 [label="Age <= 52.5\ngini = 0.18\nsamples = 10\nvalue = [9, 1]\nclass = No"] ;
432 -> 440 ;
441 [label="Duration <= 26.0\ngini = 0.5\nsamples = 2\nvalue = [1, 1]\nclass = No"] ;
440 -> 441 ;
442 [label="gini = 0.0\nsamples = 1\nvalue = [1, 0]\nclass = No"] ;
441 -> 442 ;
443 [label="gini = 0.0\nsamples = 1\nvalue = [0, 1]\nclass = Yes"] ;
441 -> 443 ;
444 [label="gini = 0.0\nsamples = 8\nvalue = [8, 0]\nclass = No"] ;
440 -> 444 ;
445 [label="Agency_Code <= 1.5\ngini = 0.198\nsamples = 9\nvalue = [8, 1]\nclass = No"] ;
431 -> 445 ;
446 [label="gini = 0.0\nsamples = 7\nvalue = [7, 0]\nclass = No"] ;
445 -> 446 ;
447 [label="Duration <= 21.0\ngini = 0.5\nsamples = 2\nvalue = [1, 1]\nclass = No"] ;
445 -> 447 ;
448 [label="gini = 0.0\nsamples = 1\nvalue = [1, 0]\nclass = No"] ;
447 -> 448 ;
449 [label="gini = 0.0\nsamples = 1\nvalue = [0, 1]\nclass = Yes"] ;
447 -> 449 ;
450 [label="gini = 0.0\nsamples = 1\nvalue = [0, 1]\nclass = Yes"] ;
430 -> 450 ;
451 [label="Commision <= 10.57\ngini = 0.249\nsamples = 419\nvalue = [358, 61]\nclass = No"] ;
429 -> 451 ;
452 [label="Age <= 44.5\ngini = 0.23\nsamples = 384\nvalue = [333, 51]\nclass = No"] ;
451 -> 452 ;
453 [label="Duration <= 387.5\ngini = 0.254\nsamples = 322\nvalue = [274, 48]\nclass = No"] ;
452 -> 453 ;
454 [label="Destination <= 0.5\ngini = 0.25\nsamples = 321\nvalue = [274, 47]\nclass = No"] ;
453 -> 454 ;
455 [label="Age <= 43.5\ngini = 0.261\nsamples = 304\nvalue = [257, 47]\nclass = No"] ;
454 -> 455 ;
456 [label="Sales <= 27.5\ngini = 0.255\nsamples = 300\nvalue = [255, 45]\nclass = No"] ;
455 -> 456 ;
457 [label="Duration <= 26.5\ngini = 0.226\nsamples = 231\nvalue = [201, 30]\nclass = No"] ;
456 -> 457 ;
458 [label="Sales <= 12.5\ngini = 0.134\nsamples = 83\nvalue = [77, 6]\nclass = No"] ;
457 -> 458 ;
459 [label="Age <= 32.5\ngini = 0.5\nsamples = 2\nvalue = [1, 1]\nclass = No"] ;
458 -> 459 ;
460 [label="gini = 0.0\nsamples = 1\nvalue = [0, 1]\nclass = Yes"] ;
459 -> 460 ;
461 [label="gini = 0.0\nsamples = 1\nvalue = [1, 0]\nclass = No"] ;
459 -> 461 ;
462 [label="Sales <= 20.5\ngini = 0.116\nsamples = 81\nvalue = [76, 5]\nclass = No"] ;
458 -> 462 ;
463 [label="gini = 0.0\nsamples = 48\nvalue = [48, 0]\nclass = No"] ;
462 -> 463 ;
464 [label="Sales <= 21.5\ngini = 0.257\nsamples = 33\nvalue = [28, 5]\nclass = No"] ;
462 -> 464 ;
465 [label="Duration <= 14.5\ngini = 0.48\nsamples = 5\nvalue = [3, 2]\nclass = No"] ;
464 -> 465 ;
466 [label="gini = 0.0\nsamples = 2\nvalue = [2, 0]\nclass = No"] ;
465 -> 466 ;
467 [label="Product Name <= 1.5\ngini = 0.444\nsamples = 3\nvalue = [1, 2]\nclass = Yes"] ;
465 -> 467 ;
468 [label="gini = 0.0\nsamples = 1\nvalue = [1, 0]\nclass = No"] ;
467 -> 468 ;
469 [label="gini = 0.0\nsamples = 2\nvalue = [0, 2]\nclass = Yes"] ;
467 -> 469 ;
470 [label="Duration <= 14.5\ngini = 0.191\nsamples = 28\nvalue = [25, 3]\nclass = No"] ;
464 -> 470 ;
471 [label="Product Name <= 1.5\ngini = 0.375\nsamples = 8\nvalue = [6, 2]\nclass = No"] ;
470 -> 471 ;
472 [label="Age <= 32.5\ngini = 0.5\nsamples = 4\nvalue = [2, 2]\nclass = No"] ;
471 -> 472 ;
473 [label="gini = 0.0\nsamples = 2\nvalue = [2, 0]\nclass = No"] ;
472 -> 473 ;
474 [label="gini = 0.0\nsamples = 2\nvalue = [0, 2]\nclass = Yes"] ;
472 -> 474 ;
475 [label="gini = 0.0\nsamples = 4\nvalue = [4, 0]\nclass = No"] ;
471 -> 475 ;
476 [label="Product Name <= 1.5\ngini = 0.095\nsamples = 20\nvalue = [19, 1]\nclass = No"] ;
470 -> 476 ;
477 [label="gini = 0.0\nsamples = 10\nvalue = [10, 0]\nclass = No"] ;
476 -> 477 ;
478 [label="Duration <= 18.5\ngini = 0.18\nsamples = 10\nvalue = [9, 1]\nclass = No"] ;
476 -> 478 ;
479 [label="gini = 0.0\nsamples = 5\nvalue = [5, 0]\nclass = No"] ;
478 -> 479 ;
480 [label="Duration <= 19.5\ngini = 0.32\nsamples = 5\nvalue = [4, 1]\nclass = No"] ;
478 -> 480 ;
481 [label="gini = 0.5\nsamples = 2\nvalue = [1, 1]\nclass = No"] ;
480 -> 481 ;
482 [label="gini = 0.0\nsamples = 3\nvalue = [3, 0]\nclass = No"] ;
480 -> 482 ;
483 [label="Duration <= 28.5\ngini = 0.272\nsamples = 148\nvalue = [124, 24]\nclass = No"] ;
457 -> 483 ;
484 [label="gini = 0.0\nsamples = 4\nvalue = [0, 4]\nclass = Yes"] ;
483 -> 484 ;
485 [label="Product Name <= 1.5\ngini = 0.239\nsamples = 144\nvalue = [124, 20]\nclass = No"] ;
483 -> 485 ;
486 [label="Sales <= 14.5\ngini = 0.155\nsamples = 71\nvalue = [65, 6]\nclass = No"] ;
485 -> 486 ;
487 [label="Age <= 35.5\ngini = 0.375\nsamples = 12\nvalue = [9, 3]\nclass = No"] ;
486 -> 487 ;
488 [label="Duration <= 43.5\ngini = 0.444\nsamples = 3\nvalue = [1, 2]\nclass = Yes"] ;
487 -> 488 ;
489 [label="gini = 0.0\nsamples = 2\nvalue = [0, 2]\nclass = Yes"] ;
488 -> 489 ;
490 [label="gini = 0.0\nsamples = 1\nvalue = [1, 0]\nclass = No"] ;
488 -> 490 ;
491 [label="Sales <= 13.5\ngini = 0.198\nsamples = 9\nvalue = [8, 1]\nclass = No"] ;
487 -> 491 ;
492 [label="gini = 0.0\nsamples = 6\nvalue = [6, 0]\nclass = No"] ;
491 -> 492 ;
493 [label="Duration <= 62.5\ngini = 0.444\nsamples = 3\nvalue = [2, 1]\nclass = No"] ;
491 -> 493 ;
494 [label="gini = 0.0\nsamples = 1\nvalue = [1, 0]\nclass = No"] ;
493 -> 494 ;
495 [label="Duration <= 109.0\ngini = 0.5\nsamples = 2\nvalue = [1, 1]\nclass = No"] ;
493 -> 495 ;
496 [label="gini = 0.0\nsamples = 1\nvalue = [0, 1]\nclass = Yes"] ;
495 -> 496 ;
497 [label="gini = 0.0\nsamples = 1\nvalue = [1, 0]\nclass = No"] ;
495 -> 497 ;
498 [label="Duration <= 54.5\ngini = 0.097\nsamples = 59\nvalue = [56, 3]\nclass = No"] ;
486 -> 498 ;
499 [label="gini = 0.0\nsamples = 26\nvalue = [26, 0]\nclass = No"] ;
498 -> 499 ;
500 [label="Duration <= 56.0\ngini = 0.165\nsamples = 33\nvalue = [30, 3]\nclass = No"] ;
498 -> 500 ;
501 [label="gini = 0.0\nsamples = 1\nvalue = [0, 1]\nclass = Yes"] ;
500 -> 501 ;
502 [label="Sales <= 17.5\ngini = 0.117\nsamples = 32\nvalue = [30, 2]\nclass = No"] ;
500 -> 502 ;
503 [label="Duration <= 76.5\ngini = 0.278\nsamples = 12\nvalue = [10, 2]\nclass = No"] ;
502 -> 503 ;
504 [label="Age <= 32.5\ngini = 0.444\nsamples = 3\nvalue = [1, 2]\nclass = Yes"] ;
503 -> 504 ;
505 [label="gini = 0.0\nsamples = 1\nvalue = [1, 0]\nclass = No"] ;
504 -> 505 ;
506 [label="gini = 0.0\nsamples = 2\nvalue = [0, 2]\nclass = Yes"] ;
504 -> 506 ;
507 [label="gini = 0.0\nsamples = 9\nvalue = [9, 0]\nclass = No"] ;
503 -> 507 ;
508 [label="gini = 0.0\nsamples = 20\nvalue = [20, 0]\nclass = No"] ;
502 -> 508 ;
509 [label="Duration <= 37.5\ngini = 0.31\nsamples = 73\nvalue = [59, 14]\nclass = No"] ;
485 -> 509 ;
510 [label="Sales <= 20.5\ngini = 0.117\nsamples = 16\nvalue = [15, 1]\nclass = No"] ;
509 -> 510 ;
511 [label="gini = 0.0\nsamples = 10\nvalue = [10, 0]\nclass = No"] ;
510 -> 511 ;
512 [label="Age <= 35.5\ngini = 0.278\nsamples = 6\nvalue = [5, 1]\nclass = No"] ;
510 -> 512 ;
513 [label="gini = 0.0\nsamples = 2\nvalue = [2, 0]\nclass = No"] ;
512 -> 513 ;
514 [label="Sales <= 22.0\ngini = 0.375\nsamples = 4\nvalue = [3, 1]\nclass = No"] ;
512 -> 514 ;
515 [label="gini = 0.5\nsamples = 2\nvalue = [1, 1]\nclass = No"] ;
514 -> 515 ;
516 [label="gini = 0.0\nsamples = 2\nvalue = [2, 0]\nclass = No"] ;
514 -> 516 ;
517 [label="Duration <= 127.0\ngini = 0.352\nsamples = 57\nvalue = [44, 13]\nclass = No"] ;
509 -> 517 ;
518 [label="Duration <= 120.0\ngini = 0.38\nsamples = 51\nvalue = [38, 13]\nclass = No"] ;
517 -> 518 ;
519 [label="Sales <= 24.5\ngini = 0.365\nsamples = 50\nvalue = [38, 12]\nclass = No"] ;
518 -> 519 ;
520 [label="Duration <= 67.5\ngini = 0.408\nsamples = 42\nvalue = [30, 12]\nclass = No"] ;
519 -> 520 ;
521 [label="Duration <= 61.0\ngini = 0.459\nsamples = 28\nvalue = [18, 10]\nclass = No"] ;
520 -> 521 ;
522 [label="Sales <= 23.5\ngini = 0.426\nsamples = 26\nvalue = [18, 8]\nclass = No"] ;
521 -> 522 ;
523 [label="Duration <= 48.5\ngini = 0.403\nsamples = 25\nvalue = [18, 7]\nclass = No"] ;
522 -> 523 ;
524 [label="Duration <= 46.5\ngini = 0.48\nsamples = 15\nvalue = [9, 6]\nclass = No"] ;
523 -> 524 ;
525 [label="Duration <= 43.5\ngini = 0.397\nsamples = 11\nvalue = [8, 3]\nclass = No"] ;
524 -> 525 ;
526 [label="Sales <= 20.5\ngini = 0.444\nsamples = 9\nvalue = [6, 3]\nclass = No"] ;
525 -> 526 ;
527 [label="Age <= 35.5\ngini = 0.49\nsamples = 7\nvalue = [4, 3]\nclass = No"] ;
526 -> 527 ;
528 [label="gini = 0.0\nsamples = 1\nvalue = [1, 0]\nclass = No"] ;
527 -> 528 ;
529 [label="Duration <= 39.5\ngini = 0.5\nsamples = 6\nvalue = [3, 3]\nclass = No"] ;
527 -> 529 ;
530 [label="Duration <= 38.5\ngini = 0.444\nsamples = 3\nvalue = [2, 1]\nclass = No"] ;
529 -> 530 ;
531 [label="gini = 0.5\nsamples = 2\nvalue = [1, 1]\nclass = No"] ;
530 -> 531 ;
532 [label="gini = 0.0\nsamples = 1\nvalue = [1, 0]\nclass = No"] ;
530 -> 532 ;
533 [label="Duration <= 41.5\ngini = 0.444\nsamples = 3\nvalue = [1, 2]\nclass = Yes"] ;
529 -> 533 ;
534 [label="gini = 0.0\nsamples = 1\nvalue = [0, 1]\nclass = Yes"] ;
533 -> 534 ;
535 [label="gini = 0.5\nsamples = 2\nvalue = [1, 1]\nclass = No"] ;
533 -> 535 ;
536 [label="gini = 0.0\nsamples = 2\nvalue = [2, 0]\nclass = No"] ;
526 -> 536 ;
537 [label="gini = 0.0\nsamples = 2\nvalue = [2, 0]\nclass = No"] ;
525 -> 537 ;
538 [label="Duration <= 47.5\ngini = 0.375\nsamples = 4\nvalue = [1, 3]\nclass = Yes"] ;
524 -> 538 ;
539 [label="gini = 0.0\nsamples = 2\nvalue = [0, 2]\nclass = Yes"] ;
538 -> 539 ;
540 [label="Sales <= 20.5\ngini = 0.5\nsamples = 2\nvalue = [1, 1]\nclass = No"] ;
538 -> 540 ;
541 [label="gini = 0.0\nsamples = 1\nvalue = [1, 0]\nclass = No"] ;
540 -> 541 ;
542 [label="gini = 0.0\nsamples = 1\nvalue = [0, 1]\nclass = Yes"] ;
540 -> 542 ;
543 [label="Age <= 37.0\ngini = 0.18\nsamples = 10\nvalue = [9, 1]\nclass = No"] ;
523 -> 543 ;
544 [label="gini = 0.0\nsamples = 9\nvalue = [9, 0]\nclass = No"] ;
543 -> 544 ;
545 [label="gini = 0.0\nsamples = 1\nvalue = [0, 1]\nclass = Yes"] ;
543 -> 545 ;
546 [label="gini = 0.0\nsamples = 1\nvalue = [0, 1]\nclass = Yes"] ;
522 -> 546 ;
547 [label="gini = 0.0\nsamples = 2\nvalue = [0, 2]\nclass = Yes"] ;
521 -> 547 ;
548 [label="Duration <= 106.0\ngini = 0.245\nsamples = 14\nvalue = [12, 2]\nclass = No"] ;
520 -> 548 ;
549 [label="Duration <= 92.5\ngini = 0.153\nsamples = 12\nvalue = [11, 1]\nclass = No"] ;
548 -> 549 ;
550 [label="gini = 0.0\nsamples = 7\nvalue = [7, 0]\nclass = No"] ;
549 -> 550 ;
551 [label="Duration <= 94.5\ngini = 0.32\nsamples = 5\nvalue = [4, 1]\nclass = No"] ;
549 -> 551 ;
552 [label="gini = 0.5\nsamples = 2\nvalue = [1, 1]\nclass = No"] ;
551 -> 552 ;
553 [label="gini = 0.0\nsamples = 3\nvalue = [3, 0]\nclass = No"] ;
551 -> 553 ;
554 [label="Duration <= 112.0\ngini = 0.5\nsamples = 2\nvalue = [1, 1]\nclass = No"] ;
548 -> 554 ;
555 [label="gini = 0.0\nsamples = 1\nvalue = [0, 1]\nclass = Yes"] ;
554 -> 555 ;
556 [label="gini = 0.0\nsamples = 1\nvalue = [1, 0]\nclass = No"] ;
554 -> 556 ;
557 [label="gini = 0.0\nsamples = 8\nvalue = [8, 0]\nclass = No"] ;
519 -> 557 ;
558 [label="gini = 0.0\nsamples = 1\nvalue = [0, 1]\nclass = Yes"] ;
518 -> 558 ;
559 [label="gini = 0.0\nsamples = 6\nvalue = [6, 0]\nclass = No"] ;
517 -> 559 ;
560 [label="Duration <= 14.5\ngini = 0.34\nsamples = 69\nvalue = [54, 15]\nclass = No"] ;
456 -> 560 ;
561 [label="Channel <= 0.5\ngini = 0.486\nsamples = 12\nvalue = [7, 5]\nclass = No"] ;
560 -> 561 ;
562 [label="gini = 0.0\nsamples = 1\nvalue = [1, 0]\nclass = No"] ;
561 -> 562 ;
563 [label="Age <= 35.5\ngini = 0.496\nsamples = 11\nvalue = [6, 5]\nclass = No"] ;
561 -> 563 ;
564 [label="gini = 0.0\nsamples = 1\nvalue = [0, 1]\nclass = Yes"] ;
563 -> 564 ;
565 [label="Product Name <= 1.5\ngini = 0.48\nsamples = 10\nvalue = [6, 4]\nclass = No"] ;
563 -> 565 ;
566 [label="Sales <= 30.5\ngini = 0.32\nsamples = 5\nvalue = [4, 1]\nclass = No"] ;
565 -> 566 ;
567 [label="gini = 0.0\nsamples = 2\nvalue = [2, 0]\nclass = No"] ;
566 -> 567 ;
568 [label="Duration <= 13.0\ngini = 0.444\nsamples = 3\nvalue = [2, 1]\nclass = No"] ;
566 -> 568 ;
569 [label="gini = 0.0\nsamples = 2\nvalue = [2, 0]\nclass = No"] ;
568 -> 569 ;
570 [label="gini = 0.0\nsamples = 1\nvalue = [0, 1]\nclass = Yes"] ;
568 -> 570 ;
571 [label="Sales <= 28.5\ngini = 0.48\nsamples = 5\nvalue = [2, 3]\nclass = Yes"] ;
565 -> 571 ;
572 [label="gini = 0.0\nsamples = 1\nvalue = [1, 0]\nclass = No"] ;
571 -> 572 ;
573 [label="Sales <= 31.0\ngini = 0.375\nsamples = 4\nvalue = [1, 3]\nclass = Yes"] ;
571 -> 573 ;
574 [label="gini = 0.0\nsamples = 2\nvalue = [0, 2]\nclass = Yes"] ;
573 -> 574 ;
575 [label="gini = 0.5\nsamples = 2\nvalue = [1, 1]\nclass = No"] ;
573 -> 575 ;
576 [label="Duration <= 79.0\ngini = 0.289\nsamples = 57\nvalue = [47, 10]\nclass = No"] ;
560 -> 576 ;
577 [label="Age <= 14.5\ngini = 0.223\nsamples = 47\nvalue = [41, 6]\nclass = No"] ;
576 -> 577 ;
578 [label="Sales <= 29.5\ngini = 0.5\nsamples = 2\nvalue = [1, 1]\nclass = No"] ;
577 -> 578 ;
579 [label="gini = 0.0\nsamples = 1\nvalue = [1, 0]\nclass = No"] ;
578 -> 579 ;
580 [label="gini = 0.0\nsamples = 1\nvalue = [0, 1]\nclass = Yes"] ;
578 -> 580 ;
581 [label="Sales <= 29.5\ngini = 0.198\nsamples = 45\nvalue = [40, 5]\nclass = No"] ;
577 -> 581 ;
582 [label="Duration <= 41.5\ngini = 0.346\nsamples = 18\nvalue = [14, 4]\nclass = No"] ;
581 -> 582 ;
583 [label="Sales <= 28.5\ngini = 0.231\nsamples = 15\nvalue = [13, 2]\nclass = No"] ;
582 -> 583 ;
584 [label="gini = 0.0\nsamples = 6\nvalue = [6, 0]\nclass = No"] ;
583 -> 584 ;
585 [label="Duration <= 19.5\ngini = 0.346\nsamples = 9\nvalue = [7, 2]\nclass = No"] ;
583 -> 585 ;
586 [label="gini = 0.0\nsamples = 3\nvalue = [3, 0]\nclass = No"] ;
585 -> 586 ;
587 [label="Duration <= 32.0\ngini = 0.444\nsamples = 6\nvalue = [4, 2]\nclass = No"] ;
585 -> 587 ;
588 [label="Duration <= 30.5\ngini = 0.5\nsamples = 4\nvalue = [2, 2]\nclass = No"] ;
587 -> 588 ;
589 [label="Product Name <= 1.5\ngini = 0.444\nsamples = 3\nvalue = [2, 1]\nclass = No"] ;
588 -> 589 ;
590 [label="gini = 0.5\nsamples = 2\nvalue = [1, 1]\nclass = No"] ;
589 -> 590 ;
591 [label="gini = 0.0\nsamples = 1\nvalue = [1, 0]\nclass = No"] ;
589 -> 591 ;
592 [label="gini = 0.0\nsamples = 1\nvalue = [0, 1]\nclass = Yes"] ;
588 -> 592 ;
593 [label="gini = 0.0\nsamples = 2\nvalue = [2, 0]\nclass = No"] ;
587 -> 593 ;
594 [label="Age <= 35.5\ngini = 0.444\nsamples = 3\nvalue = [1, 2]\nclass = Yes"] ;
582 -> 594 ;
595 [label="gini = 0.0\nsamples = 2\nvalue = [0, 2]\nclass = Yes"] ;
594 -> 595 ;
596 [label="gini = 0.0\nsamples = 1\nvalue = [1, 0]\nclass = No"] ;
594 -> 596 ;
597 [label="Duration <= 20.0\ngini = 0.071\nsamples = 27\nvalue = [26, 1]\nclass = No"] ;
581 -> 597 ;
598 [label="Duration <= 17.0\ngini = 0.444\nsamples = 3\nvalue = [2, 1]\nclass = No"] ;
597 -> 598 ;
599 [label="gini = 0.0\nsamples = 2\nvalue = [2, 0]\nclass = No"] ;
598 -> 599 ;
600 [label="gini = 0.0\nsamples = 1\nvalue = [0, 1]\nclass = Yes"] ;
598 -> 600 ;
601 [label="gini = 0.0\nsamples = 24\nvalue = [24, 0]\nclass = No"] ;
597 -> 601 ;
602 [label="Product Name <= 1.5\ngini = 0.48\nsamples = 10\nvalue = [6, 4]\nclass = No"] ;
576 -> 602 ;
603 [label="gini = 0.0\nsamples = 4\nvalue = [4, 0]\nclass = No"] ;
602 -> 603 ;
604 [label="Duration <= 256.0\ngini = 0.444\nsamples = 6\nvalue = [2, 4]\nclass = Yes"] ;
602 -> 604 ;
605 [label="Duration <= 97.0\ngini = 0.32\nsamples = 5\nvalue = [1, 4]\nclass = Yes"] ;
604 -> 605 ;
606 [label="Duration <= 86.0\ngini = 0.5\nsamples = 2\nvalue = [1, 1]\nclass = No"] ;
605 -> 606 ;
607 [label="gini = 0.0\nsamples = 1\nvalue = [0, 1]\nclass = Yes"] ;
606 -> 607 ;
608 [label="gini = 0.0\nsamples = 1\nvalue = [1, 0]\nclass = No"] ;
606 -> 608 ;
609 [label="gini = 0.0\nsamples = 3\nvalue = [0, 3]\nclass = Yes"] ;
605 -> 609 ;
610 [label="gini = 0.0\nsamples = 1\nvalue = [1, 0]\nclass = No"] ;
604 -> 610 ;
611 [label="Duration <= 50.5\ngini = 0.5\nsamples = 4\nvalue = [2, 2]\nclass = No"] ;
455 -> 611 ;
612 [label="gini = 0.0\nsamples = 2\nvalue = [0, 2]\nclass = Yes"] ;
611 -> 612 ;
613 [label="gini = 0.0\nsamples = 2\nvalue = [2, 0]\nclass = No"] ;
611 -> 613 ;
614 [label="gini = 0.0\nsamples = 17\nvalue = [17, 0]\nclass = No"] ;
454 -> 614 ;
615 [label="gini = 0.0\nsamples = 1\nvalue = [0, 1]\nclass = Yes"] ;
453 -> 615 ;
616 [label="Sales <= 20.5\ngini = 0.092\nsamples = 62\nvalue = [59, 3]\nclass = No"] ;
452 -> 616 ;
617 [label="Age <= 54.5\ngini = 0.291\nsamples = 17\nvalue = [14, 3]\nclass = No"] ;
616 -> 617 ;
618 [label="gini = 0.0\nsamples = 8\nvalue = [8, 0]\nclass = No"] ;
617 -> 618 ;
619 [label="Duration <= 19.5\ngini = 0.444\nsamples = 9\nvalue = [6, 3]\nclass = No"] ;
617 -> 619 ;
620 [label="gini = 0.0\nsamples = 4\nvalue = [4, 0]\nclass = No"] ;
619 -> 620 ;
621 [label="Sales <= 16.0\ngini = 0.48\nsamples = 5\nvalue = [2, 3]\nclass = Yes"] ;
619 -> 621 ;
622 [label="gini = 0.0\nsamples = 2\nvalue = [2, 0]\nclass = No"] ;
621 -> 622 ;
623 [label="gini = 0.0\nsamples = 3\nvalue = [0, 3]\nclass = Yes"] ;
621 -> 623 ;
624 [label="gini = 0.0\nsamples = 45\nvalue = [45, 0]\nclass = No"] ;
616 -> 624 ;
625 [label="Age <= 26.0\ngini = 0.408\nsamples = 35\nvalue = [25, 10]\nclass = No"] ;
451 -> 625 ;
626 [label="gini = 0.0\nsamples = 2\nvalue = [0, 2]\nclass = Yes"] ;
625 -> 626 ;
627 [label="Product Name <= 3.0\ngini = 0.367\nsamples = 33\nvalue = [25, 8]\nclass = No"] ;
625 -> 627 ;
628 [label="Commision <= 11.26\ngini = 0.342\nsamples = 32\nvalue = [25, 7]\nclass = No"] ;
627 -> 628 ;
629 [label="Duration <= 19.0\ngini = 0.5\nsamples = 6\nvalue = [3, 3]\nclass = No"] ;
628 -> 629 ;
630 [label="gini = 0.0\nsamples = 2\nvalue = [0, 2]\nclass = Yes"] ;
629 -> 630 ;
631 [label="Duration <= 24.5\ngini = 0.375\nsamples = 4\nvalue = [3, 1]\nclass = No"] ;
629 -> 631 ;
632 [label="gini = 0.0\nsamples = 2\nvalue = [2, 0]\nclass = No"] ;
631 -> 632 ;
633 [label="Duration <= 41.5\ngini = 0.5\nsamples = 2\nvalue = [1, 1]\nclass = No"] ;
631 -> 633 ;
634 [label="gini = 0.0\nsamples = 1\nvalue = [0, 1]\nclass = Yes"] ;
633 -> 634 ;
635 [label="gini = 0.0\nsamples = 1\nvalue = [1, 0]\nclass = No"] ;
633 -> 635 ;
636 [label="Age <= 27.5\ngini = 0.26\nsamples = 26\nvalue = [22, 4]\nclass = No"] ;
628 -> 636 ;
637 [label="Duration <= 36.0\ngini = 0.5\nsamples = 2\nvalue = [1, 1]\nclass = No"] ;
636 -> 637 ;
638 [label="gini = 0.0\nsamples = 1\nvalue = [0, 1]\nclass = Yes"] ;
637 -> 638 ;
639 [label="gini = 0.0\nsamples = 1\nvalue = [1, 0]\nclass = No"] ;
637 -> 639 ;
640 [label="Duration <= 36.0\ngini = 0.219\nsamples = 24\nvalue = [21, 3]\nclass = No"] ;
636 -> 640 ;
641 [label="Duration <= 17.5\ngini = 0.117\nsamples = 16\nvalue = [15, 1]\nclass = No"] ;
640 -> 641 ;
642 [label="Destination <= 0.5\ngini = 0.32\nsamples = 5\nvalue = [4, 1]\nclass = No"] ;
641 -> 642 ;
643 [label="gini = 0.0\nsamples = 1\nvalue = [0, 1]\nclass = Yes"] ;
642 -> 643 ;
644 [label="gini = 0.0\nsamples = 4\nvalue = [4, 0]\nclass = No"] ;
642 -> 644 ;
645 [label="gini = 0.0\nsamples = 11\nvalue = [11, 0]\nclass = No"] ;
641 -> 645 ;
646 [label="Duration <= 38.5\ngini = 0.375\nsamples = 8\nvalue = [6, 2]\nclass = No"] ;
640 -> 646 ;
647 [label="gini = 0.0\nsamples = 1\nvalue = [0, 1]\nclass = Yes"] ;
646 -> 647 ;
648 [label="Destination <= 1.5\ngini = 0.245\nsamples = 7\nvalue = [6, 1]\nclass = No"] ;
646 -> 648 ;
649 [label="gini = 0.0\nsamples = 5\nvalue = [5, 0]\nclass = No"] ;
648 -> 649 ;
650 [label="Duration <= 117.0\ngini = 0.5\nsamples = 2\nvalue = [1, 1]\nclass = No"] ;
648 -> 650 ;
651 [label="gini = 0.0\nsamples = 1\nvalue = [0, 1]\nclass = Yes"] ;
650 -> 651 ;
652 [label="gini = 0.0\nsamples = 1\nvalue = [1, 0]\nclass = No"] ;
650 -> 652 ;
653 [label="gini = 0.0\nsamples = 1\nvalue = [0, 1]\nclass = Yes"] ;
627 -> 653 ;
654 [label="Product Name <= 1.5\ngini = 0.386\nsamples = 667\nvalue = [493, 174]\nclass = No"] ;
384 -> 654 ;
655 [label="Agency_Code <= 2.5\ngini = 0.198\nsamples = 215\nvalue = [191, 24]\nclass = No"] ;
654 -> 655 ;
656 [label="Sales <= 65.5\ngini = 0.122\nsamples = 153\nvalue = [143, 10]\nclass = No"] ;
655 -> 656 ;
657 [label="Sales <= 64.5\ngini = 0.176\nsamples = 82\nvalue = [74, 8]\nclass = No"] ;
656 -> 657 ;
658 [label="Duration <= 17.5\ngini = 0.158\nsamples = 81\nvalue = [74, 7]\nclass = No"] ;
657 -> 658 ;
659 [label="Destination <= 1.5\ngini = 0.302\nsamples = 27\nvalue = [22, 5]\nclass = No"] ;
658 -> 659 ;
660 [label="Sales <= 59.5\ngini = 0.26\nsamples = 26\nvalue = [22, 4]\nclass = No"] ;
659 -> 660 ;
661 [label="Sales <= 45.5\ngini = 0.219\nsamples = 24\nvalue = [21, 3]\nclass = No"] ;
660 -> 661 ;
662 [label="Sales <= 43.0\ngini = 0.266\nsamples = 19\nvalue = [16, 3]\nclass = No"] ;
661 -> 662 ;
663 [label="Sales <= 37.5\ngini = 0.198\nsamples = 18\nvalue = [16, 2]\nclass = No"] ;
662 -> 663 ;
664 [label="Duration <= 4.0\ngini = 0.32\nsamples = 10\nvalue = [8, 2]\nclass = No"] ;
663 -> 664 ;
665 [label="gini = 0.5\nsamples = 2\nvalue = [1, 1]\nclass = No"] ;
664 -> 665 ;
666 [label="Sales <= 36.5\ngini = 0.219\nsamples = 8\nvalue = [7, 1]\nclass = No"] ;
664 -> 666 ;
667 [label="gini = 0.0\nsamples = 5\nvalue = [5, 0]\nclass = No"] ;
666 -> 667 ;
668 [label="Duration <= 13.0\ngini = 0.444\nsamples = 3\nvalue = [2, 1]\nclass = No"] ;
666 -> 668 ;
669 [label="gini = 0.0\nsamples = 2\nvalue = [2, 0]\nclass = No"] ;
668 -> 669 ;
670 [label="gini = 0.0\nsamples = 1\nvalue = [0, 1]\nclass = Yes"] ;
668 -> 670 ;
671 [label="gini = 0.0\nsamples = 8\nvalue = [8, 0]\nclass = No"] ;
663 -> 671 ;
672 [label="gini = 0.0\nsamples = 1\nvalue = [0, 1]\nclass = Yes"] ;
662 -> 672 ;
673 [label="gini = 0.0\nsamples = 5\nvalue = [5, 0]\nclass = No"] ;
661 -> 673 ;
674 [label="Sales <= 60.5\ngini = 0.5\nsamples = 2\nvalue = [1, 1]\nclass = No"] ;
660 -> 674 ;
675 [label="gini = 0.0\nsamples = 1\nvalue = [0, 1]\nclass = Yes"] ;
674 -> 675 ;
676 [label="gini = 0.0\nsamples = 1\nvalue = [1, 0]\nclass = No"] ;
674 -> 676 ;
677 [label="gini = 0.0\nsamples = 1\nvalue = [0, 1]\nclass = Yes"] ;
659 -> 677 ;
678 [label="Age <= 37.0\ngini = 0.071\nsamples = 54\nvalue = [52, 2]\nclass = No"] ;
658 -> 678 ;
679 [label="Duration <= 145.5\ngini = 0.038\nsamples = 51\nvalue = [50, 1]\nclass = No"] ;
678 -> 679 ;
680 [label="gini = 0.0\nsamples = 45\nvalue = [45, 0]\nclass = No"] ;
679 -> 680 ;
681 [label="Duration <= 149.0\ngini = 0.278\nsamples = 6\nvalue = [5, 1]\nclass = No"] ;
679 -> 681 ;
682 [label="gini = 0.0\nsamples = 1\nvalue = [0, 1]\nclass = Yes"] ;
681 -> 682 ;
683 [label="gini = 0.0\nsamples = 5\nvalue = [5, 0]\nclass = No"] ;
681 -> 683 ;
684 [label="Duration <= 37.5\ngini = 0.444\nsamples = 3\nvalue = [2, 1]\nclass = No"] ;
678 -> 684 ;
685 [label="gini = 0.0\nsamples = 2\nvalue = [2, 0]\nclass = No"] ;
684 -> 685 ;
686 [label="gini = 0.0\nsamples = 1\nvalue = [0, 1]\nclass = Yes"] ;
684 -> 686 ;
687 [label="gini = 0.0\nsamples = 1\nvalue = [0, 1]\nclass = Yes"] ;
657 -> 687 ;
688 [label="Age <= 33.0\ngini = 0.055\nsamples = 71\nvalue = [69, 2]\nclass = No"] ;
656 -> 688 ;
689 [label="Age <= 31.0\ngini = 0.32\nsamples = 10\nvalue = [8, 2]\nclass = No"] ;
688 -> 689 ;
690 [label="Duration <= 176.5\ngini = 0.198\nsamples = 9\nvalue = [8, 1]\nclass = No"] ;
689 -> 690 ;
691 [label="gini = 0.0\nsamples = 8\nvalue = [8, 0]\nclass = No"] ;
690 -> 691 ;
692 [label="gini = 0.0\nsamples = 1\nvalue = [0, 1]\nclass = Yes"] ;
690 -> 692 ;
693 [label="gini = 0.0\nsamples = 1\nvalue = [0, 1]\nclass = Yes"] ;
689 -> 693 ;
694 [label="gini = 0.0\nsamples = 61\nvalue = [61, 0]\nclass = No"] ;
688 -> 694 ;
695 [label="Commision <= 7.0\ngini = 0.35\nsamples = 62\nvalue = [48, 14]\nclass = No"] ;
655 -> 695 ;
696 [label="gini = 0.0\nsamples = 1\nvalue = [0, 1]\nclass = Yes"] ;
695 -> 696 ;
697 [label="Destination <= 0.5\ngini = 0.335\nsamples = 61\nvalue = [48, 13]\nclass = No"] ;
695 -> 697 ;
698 [label="Age <= 29.5\ngini = 0.258\nsamples = 46\nvalue = [39, 7]\nclass = No"] ;
697 -> 698 ;
699 [label="Commision <= 11.9\ngini = 0.48\nsamples = 10\nvalue = [6, 4]\nclass = No"] ;
698 -> 699 ;
700 [label="gini = 0.0\nsamples = 4\nvalue = [4, 0]\nclass = No"] ;
699 -> 700 ;
701 [label="Commision <= 14.7\ngini = 0.444\nsamples = 6\nvalue = [2, 4]\nclass = Yes"] ;
699 -> 701 ;
702 [label="gini = 0.0\nsamples = 3\nvalue = [0, 3]\nclass = Yes"] ;
701 -> 702 ;
703 [label="Age <= 21.0\ngini = 0.444\nsamples = 3\nvalue = [2, 1]\nclass = No"] ;
701 -> 703 ;
704 [label="gini = 0.0\nsamples = 1\nvalue = [0, 1]\nclass = Yes"] ;
703 -> 704 ;
705 [label="gini = 0.0\nsamples = 2\nvalue = [2, 0]\nclass = No"] ;
703 -> 705 ;
706 [label="Duration <= 8.5\ngini = 0.153\nsamples = 36\nvalue = [33, 3]\nclass = No"] ;
698 -> 706 ;
707 [label="Sales <= 39.0\ngini = 0.5\nsamples = 4\nvalue = [2, 2]\nclass = No"] ;
706 -> 707 ;
708 [label="Age <= 48.0\ngini = 0.444\nsamples = 3\nvalue = [2, 1]\nclass = No"] ;
707 -> 708 ;
709 [label="gini = 0.0\nsamples = 1\nvalue = [1, 0]\nclass = No"] ;
708 -> 709 ;
710 [label="Duration <= 6.0\ngini = 0.5\nsamples = 2\nvalue = [1, 1]\nclass = No"] ;
708 -> 710 ;
711 [label="gini = 0.0\nsamples = 1\nvalue = [1, 0]\nclass = No"] ;
710 -> 711 ;
712 [label="gini = 0.0\nsamples = 1\nvalue = [0, 1]\nclass = Yes"] ;
710 -> 712 ;
713 [label="gini = 0.0\nsamples = 1\nvalue = [0, 1]\nclass = Yes"] ;
707 -> 713 ;
714 [label="Age <= 59.0\ngini = 0.061\nsamples = 32\nvalue = [31, 1]\nclass = No"] ;
706 -> 714 ;
715 [label="gini = 0.0\nsamples = 29\nvalue = [29, 0]\nclass = No"] ;
714 -> 715 ;
716 [label="Age <= 63.5\ngini = 0.444\nsamples = 3\nvalue = [2, 1]\nclass = No"] ;
714 -> 716 ;
717 [label="gini = 0.0\nsamples = 1\nvalue = [0, 1]\nclass = Yes"] ;
716 -> 717 ;
718 [label="gini = 0.0\nsamples = 2\nvalue = [2, 0]\nclass = No"] ;
716 -> 718 ;
719 [label="Duration <= 85.5\ngini = 0.48\nsamples = 15\nvalue = [9, 6]\nclass = No"] ;
697 -> 719 ;
720 [label="Age <= 44.5\ngini = 0.375\nsamples = 12\nvalue = [9, 3]\nclass = No"] ;
719 -> 720 ;
721 [label="gini = 0.0\nsamples = 8\nvalue = [8, 0]\nclass = No"] ;
720 -> 721 ;
722 [label="Age <= 52.0\ngini = 0.375\nsamples = 4\nvalue = [1, 3]\nclass = Yes"] ;
720 -> 722 ;
723 [label="gini = 0.0\nsamples = 3\nvalue = [0, 3]\nclass = Yes"] ;
722 -> 723 ;
724 [label="gini = 0.0\nsamples = 1\nvalue = [1, 0]\nclass = No"] ;
722 -> 724 ;
725 [label="gini = 0.0\nsamples = 3\nvalue = [0, 3]\nclass = Yes"] ;
719 -> 725 ;
726 [label="Sales <= 157.7\ngini = 0.443\nsamples = 452\nvalue = [302, 150]\nclass = No"] ;
654 -> 726 ;
727 [label="Channel <= 0.5\ngini = 0.423\nsamples = 412\nvalue = [287, 125]\nclass = No"] ;
726 -> 727 ;
728 [label="Duration <= 384.0\ngini = 0.375\nsamples = 8\nvalue = [2, 6]\nclass = Yes"] ;
727 -> 728 ;
729 [label="Age <= 43.5\ngini = 0.245\nsamples = 7\nvalue = [1, 6]\nclass = Yes"] ;
728 -> 729 ;
730 [label="gini = 0.0\nsamples = 6\nvalue = [0, 6]\nclass = Yes"] ;
729 -> 730 ;
731 [label="gini = 0.0\nsamples = 1\nvalue = [1, 0]\nclass = No"] ;
729 -> 731 ;
732 [label="gini = 0.0\nsamples = 1\nvalue = [1, 0]\nclass = No"] ;
728 -> 732 ;
733 [label="Product Name <= 2.5\ngini = 0.416\nsamples = 404\nvalue = [285, 119]\nclass = No"] ;
727 -> 733 ;
734 [label="Duration <= 33.5\ngini = 0.408\nsamples = 389\nvalue = [278, 111]\nclass = No"] ;
733 -> 734 ;
735 [label="Age <= 30.5\ngini = 0.356\nsamples = 203\nvalue = [156, 47]\nclass = No"] ;
734 -> 735 ;
736 [label="Age <= 29.5\ngini = 0.498\nsamples = 15\nvalue = [8, 7]\nclass = No"] ;
735 -> 736 ;
737 [label="Age <= 21.5\ngini = 0.444\nsamples = 12\nvalue = [8, 4]\nclass = No"] ;
736 -> 737 ;
738 [label="gini = 0.0\nsamples = 1\nvalue = [0, 1]\nclass = Yes"] ;
737 -> 738 ;
739 [label="Duration <= 24.5\ngini = 0.397\nsamples = 11\nvalue = [8, 3]\nclass = No"] ;
737 -> 739 ;
740 [label="Duration <= 18.5\ngini = 0.469\nsamples = 8\nvalue = [5, 3]\nclass = No"] ;
739 -> 740 ;
741 [label="Commision <= 32.67\ngini = 0.278\nsamples = 6\nvalue = [5, 1]\nclass = No"] ;
740 -> 741 ;
742 [label="gini = 0.0\nsamples = 5\nvalue = [5, 0]\nclass = No"] ;
741 -> 742 ;
743 [label="gini = 0.0\nsamples = 1\nvalue = [0, 1]\nclass = Yes"] ;
741 -> 743 ;
744 [label="gini = 0.0\nsamples = 2\nvalue = [0, 2]\nclass = Yes"] ;
740 -> 744 ;
745 [label="gini = 0.0\nsamples = 3\nvalue = [3, 0]\nclass = No"] ;
739 -> 745 ;
746 [label="gini = 0.0\nsamples = 3\nvalue = [0, 3]\nclass = Yes"] ;
736 -> 746 ;
747 [label="Commision <= 56.43\ngini = 0.335\nsamples = 188\nvalue = [148, 40]\nclass = No"] ;
735 -> 747 ;
748 [label="Age <= 36.5\ngini = 0.321\nsamples = 179\nvalue = [143, 36]\nclass = No"] ;
747 -> 748 ;
749 [label="Sales <= 35.5\ngini = 0.364\nsamples = 121\nvalue = [92, 29]\nclass = No"] ;
748 -> 749 ;
750 [label="Duration <= 25.5\ngini = 0.494\nsamples = 9\nvalue = [5, 4]\nclass = No"] ;
749 -> 750 ;
751 [label="Duration <= 7.5\ngini = 0.408\nsamples = 7\nvalue = [5, 2]\nclass = No"] ;
750 -> 751 ;
752 [label="gini = 0.0\nsamples = 2\nvalue = [2, 0]\nclass = No"] ;
751 -> 752 ;
753 [label="Sales <= 33.5\ngini = 0.48\nsamples = 5\nvalue = [3, 2]\nclass = No"] ;
751 -> 753 ;
754 [label="gini = 0.0\nsamples = 2\nvalue = [2, 0]\nclass = No"] ;
753 -> 754 ;
755 [label="Duration <= 9.0\ngini = 0.444\nsamples = 3\nvalue = [1, 2]\nclass = Yes"] ;
753 -> 755 ;
756 [label="gini = 0.0\nsamples = 1\nvalue = [0, 1]\nclass = Yes"] ;
755 -> 756 ;
757 [label="Sales <= 34.5\ngini = 0.5\nsamples = 2\nvalue = [1, 1]\nclass = No"] ;
755 -> 757 ;
758 [label="gini = 0.0\nsamples = 1\nvalue = [1, 0]\nclass = No"] ;
757 -> 758 ;
759 [label="gini = 0.0\nsamples = 1\nvalue = [0, 1]\nclass = Yes"] ;
757 -> 759 ;
760 [label="gini = 0.0\nsamples = 2\nvalue = [0, 2]\nclass = Yes"] ;
750 -> 760 ;
761 [label="Sales <= 38.5\ngini = 0.347\nsamples = 112\nvalue = [87, 25]\nclass = No"] ;
749 -> 761 ;
762 [label="gini = 0.0\nsamples = 6\nvalue = [6, 0]\nclass = No"] ;
761 -> 762 ;
763 [label="Sales <= 39.8\ngini = 0.36\nsamples = 106\nvalue = [81, 25]\nclass = No"] ;
761 -> 763 ;
764 [label="Duration <= 10.5\ngini = 0.465\nsamples = 19\nvalue = [12, 7]\nclass = No"] ;
763 -> 764 ;
765 [label="Duration <= 5.0\ngini = 0.278\nsamples = 6\nvalue = [1, 5]\nclass = Yes"] ;
764 -> 765 ;
766 [label="gini = 0.0\nsamples = 1\nvalue = [1, 0]\nclass = No"] ;
765 -> 766 ;
767 [label="gini = 0.0\nsamples = 5\nvalue = [0, 5]\nclass = Yes"] ;
765 -> 767 ;
768 [label="Duration <= 23.5\ngini = 0.26\nsamples = 13\nvalue = [11, 2]\nclass = No"] ;
764 -> 768 ;
769 [label="gini = 0.0\nsamples = 8\nvalue = [8, 0]\nclass = No"] ;
768 -> 769 ;
770 [label="Duration <= 25.5\ngini = 0.48\nsamples = 5\nvalue = [3, 2]\nclass = No"] ;
768 -> 770 ;
771 [label="Destination <= 1.0\ngini = 0.444\nsamples = 3\nvalue = [1, 2]\nclass = Yes"] ;
770 -> 771 ;
772 [label="gini = 0.0\nsamples = 2\nvalue = [0, 2]\nclass = Yes"] ;
771 -> 772 ;
773 [label="gini = 0.0\nsamples = 1\nvalue = [1, 0]\nclass = No"] ;
771 -> 773 ;
774 [label="gini = 0.0\nsamples = 2\nvalue = [2, 0]\nclass = No"] ;
770 -> 774 ;
775 [label="Sales <= 53.5\ngini = 0.328\nsamples = 87\nvalue = [69, 18]\nclass = No"] ;
763 -> 775 ;
776 [label="Duration <= 12.5\ngini = 0.193\nsamples = 37\nvalue = [33, 4]\nclass = No"] ;
775 -> 776 ;
777 [label="Duration <= 5.5\ngini = 0.091\nsamples = 21\nvalue = [20, 1]\nclass = No"] ;
776 -> 777 ;
778 [label="Duration <= 4.5\ngini = 0.245\nsamples = 7\nvalue = [6, 1]\nclass = No"] ;
777 -> 778 ;
779 [label="gini = 0.0\nsamples = 6\nvalue = [6, 0]\nclass = No"] ;
778 -> 779 ;
780 [label="gini = 0.0\nsamples = 1\nvalue = [0, 1]\nclass = Yes"] ;
778 -> 780 ;
781 [label="gini = 0.0\nsamples = 14\nvalue = [14, 0]\nclass = No"] ;
777 -> 781 ;
782 [label="Duration <= 13.5\ngini = 0.305\nsamples = 16\nvalue = [13, 3]\nclass = No"] ;
776 -> 782 ;
783 [label="gini = 0.0\nsamples = 1\nvalue = [0, 1]\nclass = Yes"] ;
782 -> 783 ;
784 [label="Sales <= 43.5\ngini = 0.231\nsamples = 15\nvalue = [13, 2]\nclass = No"] ;
782 -> 784 ;
785 [label="gini = 0.0\nsamples = 5\nvalue = [5, 0]\nclass = No"] ;
784 -> 785 ;
786 [label="Duration <= 18.0\ngini = 0.32\nsamples = 10\nvalue = [8, 2]\nclass = No"] ;
784 -> 786 ;
787 [label="gini = 0.0\nsamples = 1\nvalue = [0, 1]\nclass = Yes"] ;
786 -> 787 ;
788 [label="Sales <= 49.75\ngini = 0.198\nsamples = 9\nvalue = [8, 1]\nclass = No"] ;
786 -> 788 ;
789 [label="gini = 0.0\nsamples = 5\nvalue = [5, 0]\nclass = No"] ;
788 -> 789 ;
790 [label="Sales <= 50.5\ngini = 0.375\nsamples = 4\nvalue = [3, 1]\nclass = No"] ;
788 -> 790 ;
791 [label="gini = 0.0\nsamples = 1\nvalue = [0, 1]\nclass = Yes"] ;
790 -> 791 ;
792 [label="gini = 0.0\nsamples = 3\nvalue = [3, 0]\nclass = No"] ;
790 -> 792 ;
793 [label="Sales <= 79.1\ngini = 0.403\nsamples = 50\nvalue = [36, 14]\nclass = No"] ;
775 -> 793 ;
794 [label="Destination <= 1.5\ngini = 0.477\nsamples = 28\nvalue = [17, 11]\nclass = No"] ;
793 -> 794 ;
795 [label="Sales <= 65.5\ngini = 0.496\nsamples = 22\nvalue = [12, 10]\nclass = No"] ;
794 -> 795 ;
796 [label="Sales <= 57.7\ngini = 0.397\nsamples = 11\nvalue = [8, 3]\nclass = No"] ;
795 -> 796 ;
797 [label="Duration <= 15.0\ngini = 0.444\nsamples = 3\nvalue = [1, 2]\nclass = Yes"] ;
796 -> 797 ;
798 [label="gini = 0.0\nsamples = 1\nvalue = [0, 1]\nclass = Yes"] ;
797 -> 798 ;
799 [label="Sales <= 55.0\ngini = 0.5\nsamples = 2\nvalue = [1, 1]\nclass = No"] ;
797 -> 799 ;
800 [label="gini = 0.0\nsamples = 1\nvalue = [0, 1]\nclass = Yes"] ;
799 -> 800 ;
801 [label="gini = 0.0\nsamples = 1\nvalue = [1, 0]\nclass = No"] ;
799 -> 801 ;
802 [label="Duration <= 7.5\ngini = 0.219\nsamples = 8\nvalue = [7, 1]\nclass = No"] ;
796 -> 802 ;
803 [label="gini = 0.0\nsamples = 1\nvalue = [0, 1]\nclass = Yes"] ;
802 -> 803 ;
804 [label="gini = 0.0\nsamples = 7\nvalue = [7, 0]\nclass = No"] ;
802 -> 804 ;
805 [label="Age <= 31.5\ngini = 0.463\nsamples = 11\nvalue = [4, 7]\nclass = Yes"] ;
795 -> 805 ;
806 [label="gini = 0.0\nsamples = 1\nvalue = [1, 0]\nclass = No"] ;
805 -> 806 ;
807 [label="Duration <= 5.5\ngini = 0.42\nsamples = 10\nvalue = [3, 7]\nclass = Yes"] ;
805 -> 807 ;
808 [label="gini = 0.0\nsamples = 1\nvalue = [1, 0]\nclass = No"] ;
807 -> 808 ;
809 [label="Destination <= 0.5\ngini = 0.346\nsamples = 9\nvalue = [2, 7]\nclass = Yes"] ;
807 -> 809 ;
810 [label="Age <= 35.5\ngini = 0.444\nsamples = 6\nvalue = [2, 4]\nclass = Yes"] ;
809 -> 810 ;
811 [label="gini = 0.0\nsamples = 1\nvalue = [1, 0]\nclass = No"] ;
810 -> 811 ;
812 [label="Sales <= 75.5\ngini = 0.32\nsamples = 5\nvalue = [1, 4]\nclass = Yes"] ;
810 -> 812 ;
813 [label="gini = 0.0\nsamples = 3\nvalue = [0, 3]\nclass = Yes"] ;
812 -> 813 ;
814 [label="Sales <= 78.5\ngini = 0.5\nsamples = 2\nvalue = [1, 1]\nclass = No"] ;
812 -> 814 ;
815 [label="gini = 0.0\nsamples = 1\nvalue = [1, 0]\nclass = No"] ;
814 -> 815 ;
816 [label="gini = 0.0\nsamples = 1\nvalue = [0, 1]\nclass = Yes"] ;
814 -> 816 ;
817 [label="gini = 0.0\nsamples = 3\nvalue = [0, 3]\nclass = Yes"] ;
809 -> 817 ;
818 [label="Age <= 33.5\ngini = 0.278\nsamples = 6\nvalue = [5, 1]\nclass = No"] ;
794 -> 818 ;
819 [label="Sales <= 64.35\ngini = 0.5\nsamples = 2\nvalue = [1, 1]\nclass = No"] ;
818 -> 819 ;
820 [label="gini = 0.0\nsamples = 1\nvalue = [0, 1]\nclass = Yes"] ;
819 -> 820 ;
821 [label="gini = 0.0\nsamples = 1\nvalue = [1, 0]\nclass = No"] ;
819 -> 821 ;
822 [label="gini = 0.0\nsamples = 4\nvalue = [4, 0]\nclass = No"] ;
818 -> 822 ;
823 [label="Duration <= 30.5\ngini = 0.236\nsamples = 22\nvalue = [19, 3]\nclass = No"] ;
793 -> 823 ;
824 [label="Sales <= 130.5\ngini = 0.172\nsamples = 21\nvalue = [19, 2]\nclass = No"] ;
823 -> 824 ;
825 [label="Destination <= 1.5\ngini = 0.105\nsamples = 18\nvalue = [17, 1]\nclass = No"] ;
824 -> 825 ;
826 [label="gini = 0.0\nsamples = 11\nvalue = [11, 0]\nclass = No"] ;
825 -> 826 ;
827 [label="Duration <= 17.5\ngini = 0.245\nsamples = 7\nvalue = [6, 1]\nclass = No"] ;
825 -> 827 ;
828 [label="Duration <= 10.5\ngini = 0.5\nsamples = 2\nvalue = [1, 1]\nclass = No"] ;
827 -> 828 ;
829 [label="gini = 0.0\nsamples = 1\nvalue = [1, 0]\nclass = No"] ;
828 -> 829 ;
830 [label="gini = 0.0\nsamples = 1\nvalue = [0, 1]\nclass = Yes"] ;
828 -> 830 ;
831 [label="gini = 0.0\nsamples = 5\nvalue = [5, 0]\nclass = No"] ;
827 -> 831 ;
832 [label="Duration <= 8.0\ngini = 0.444\nsamples = 3\nvalue = [2, 1]\nclass = No"] ;
824 -> 832 ;
833 [label="gini = 0.0\nsamples = 1\nvalue = [0, 1]\nclass = Yes"] ;
832 -> 833 ;
834 [label="gini = 0.0\nsamples = 2\nvalue = [2, 0]\nclass = No"] ;
832 -> 834 ;
835 [label="gini = 0.0\nsamples = 1\nvalue = [0, 1]\nclass = Yes"] ;
823 -> 835 ;
836 [label="Duration <= 22.5\ngini = 0.212\nsamples = 58\nvalue = [51, 7]\nclass = No"] ;
748 -> 836 ;
837 [label="Duration <= 20.5\ngini = 0.283\nsamples = 41\nvalue = [34, 7]\nclass = No"] ;
836 -> 837 ;
838 [label="Age <= 49.0\ngini = 0.239\nsamples = 36\nvalue = [31, 5]\nclass = No"] ;
837 -> 838 ;
839 [label="Age <= 39.0\ngini = 0.105\nsamples = 18\nvalue = [17, 1]\nclass = No"] ;
838 -> 839 ;
840 [label="Commision <= 26.73\ngini = 0.375\nsamples = 4\nvalue = [3, 1]\nclass = No"] ;
839 -> 840 ;
841 [label="gini = 0.0\nsamples = 3\nvalue = [3, 0]\nclass = No"] ;
840 -> 841 ;
842 [label="gini = 0.0\nsamples = 1\nvalue = [0, 1]\nclass = Yes"] ;
840 -> 842 ;
843 [label="gini = 0.0\nsamples = 14\nvalue = [14, 0]\nclass = No"] ;
839 -> 843 ;
844 [label="Agency_Code <= 1.5\ngini = 0.346\nsamples = 18\nvalue = [14, 4]\nclass = No"] ;
838 -> 844 ;
845 [label="Duration <= 19.5\ngini = 0.408\nsamples = 14\nvalue = [10, 4]\nclass = No"] ;
844 -> 845 ;
846 [label="Destination <= 0.5\ngini = 0.444\nsamples = 12\nvalue = [8, 4]\nclass = No"] ;
845 -> 846 ;
847 [label="Sales <= 59.4\ngini = 0.5\nsamples = 4\nvalue = [2, 2]\nclass = No"] ;
846 -> 847 ;
848 [label="Duration <= 16.5\ngini = 0.444\nsamples = 3\nvalue = [2, 1]\nclass = No"] ;
847 -> 848 ;
849 [label="gini = 0.0\nsamples = 2\nvalue = [2, 0]\nclass = No"] ;
848 -> 849 ;
850 [label="gini = 0.0\nsamples = 1\nvalue = [0, 1]\nclass = Yes"] ;
848 -> 850 ;
851 [label="gini = 0.0\nsamples = 1\nvalue = [0, 1]\nclass = Yes"] ;
847 -> 851 ;
852 [label="Sales <= 64.35\ngini = 0.375\nsamples = 8\nvalue = [6, 2]\nclass = No"] ;
846 -> 852 ;
853 [label="Commision <= 32.67\ngini = 0.48\nsamples = 5\nvalue = [3, 2]\nclass = No"] ;
852 -> 853 ;
854 [label="Age <= 56.0\ngini = 0.375\nsamples = 4\nvalue = [3, 1]\nclass = No"] ;
853 -> 854 ;
855 [label="gini = 0.0\nsamples = 3\nvalue = [3, 0]\nclass = No"] ;
854 -> 855 ;
856 [label="gini = 0.0\nsamples = 1\nvalue = [0, 1]\nclass = Yes"] ;
854 -> 856 ;
857 [label="gini = 0.0\nsamples = 1\nvalue = [0, 1]\nclass = Yes"] ;
853 -> 857 ;
858 [label="gini = 0.0\nsamples = 3\nvalue = [3, 0]\nclass = No"] ;
852 -> 858 ;
859 [label="gini = 0.0\nsamples = 2\nvalue = [2, 0]\nclass = No"] ;
845 -> 859 ;
860 [label="gini = 0.0\nsamples = 4\nvalue = [4, 0]\nclass = No"] ;
844 -> 860 ;
861 [label="Commision <= 11.88\ngini = 0.48\nsamples = 5\nvalue = [3, 2]\nclass = No"] ;
837 -> 861 ;
862 [label="gini = 0.0\nsamples = 1\nvalue = [0, 1]\nclass = Yes"] ;
861 -> 862 ;
863 [label="Age <= 47.5\ngini = 0.375\nsamples = 4\nvalue = [3, 1]\nclass = No"] ;
861 -> 863 ;
864 [label="gini = 0.0\nsamples = 2\nvalue = [2, 0]\nclass = No"] ;
863 -> 864 ;
865 [label="Commision <= 41.58\ngini = 0.5\nsamples = 2\nvalue = [1, 1]\nclass = No"] ;
863 -> 865 ;
866 [label="gini = 0.0\nsamples = 1\nvalue = [0, 1]\nclass = Yes"] ;
865 -> 866 ;
867 [label="gini = 0.0\nsamples = 1\nvalue = [1, 0]\nclass = No"] ;
865 -> 867 ;
868 [label="gini = 0.0\nsamples = 17\nvalue = [17, 0]\nclass = No"] ;
836 -> 868 ;
869 [label="Commision <= 62.37\ngini = 0.494\nsamples = 9\nvalue = [5, 4]\nclass = No"] ;
747 -> 869 ;
870 [label="gini = 0.0\nsamples = 3\nvalue = [0, 3]\nclass = Yes"] ;
869 -> 870 ;
871 [label="Duration <= 14.5\ngini = 0.278\nsamples = 6\nvalue = [5, 1]\nclass = No"] ;
869 -> 871 ;
872 [label="gini = 0.0\nsamples = 1\nvalue = [0, 1]\nclass = Yes"] ;
871 -> 872 ;
873 [label="gini = 0.0\nsamples = 5\nvalue = [5, 0]\nclass = No"] ;
871 -> 873 ;
874 [label="Destination <= 1.5\ngini = 0.451\nsamples = 186\nvalue = [122, 64]\nclass = No"] ;
734 -> 874 ;
875 [label="Duration <= 132.5\ngini = 0.412\nsamples = 138\nvalue = [98, 40]\nclass = No"] ;
874 -> 875 ;
876 [label="Duration <= 116.0\ngini = 0.441\nsamples = 116\nvalue = [78, 38]\nclass = No"] ;
875 -> 876 ;
877 [label="Age <= 49.5\ngini = 0.419\nsamples = 107\nvalue = [75, 32]\nclass = No"] ;
876 -> 877 ;
878 [label="Age <= 42.0\ngini = 0.386\nsamples = 92\nvalue = [68, 24]\nclass = No"] ;
877 -> 878 ;
879 [label="Duration <= 36.5\ngini = 0.414\nsamples = 82\nvalue = [58, 24]\nclass = No"] ;
878 -> 879 ;
880 [label="Agency_Code <= 1.5\ngini = 0.444\nsamples = 6\nvalue = [2, 4]\nclass = Yes"] ;
879 -> 880 ;
881 [label="gini = 0.0\nsamples = 1\nvalue = [1, 0]\nclass = No"] ;
880 -> 881 ;
882 [label="Duration <= 34.5\ngini = 0.32\nsamples = 5\nvalue = [1, 4]\nclass = Yes"] ;
880 -> 882 ;
883 [label="Sales <= 47.0\ngini = 0.444\nsamples = 3\nvalue = [1, 2]\nclass = Yes"] ;
882 -> 883 ;
884 [label="gini = 0.0\nsamples = 1\nvalue = [0, 1]\nclass = Yes"] ;
883 -> 884 ;
885 [label="Sales <= 86.5\ngini = 0.5\nsamples = 2\nvalue = [1, 1]\nclass = No"] ;
883 -> 885 ;
886 [label="gini = 0.0\nsamples = 1\nvalue = [1, 0]\nclass = No"] ;
885 -> 886 ;
887 [label="gini = 0.0\nsamples = 1\nvalue = [0, 1]\nclass = Yes"] ;
885 -> 887 ;
888 [label="gini = 0.0\nsamples = 2\nvalue = [0, 2]\nclass = Yes"] ;
882 -> 888 ;
889 [label="Age <= 26.5\ngini = 0.388\nsamples = 76\nvalue = [56, 20]\nclass = No"] ;
879 -> 889 ;
890 [label="gini = 0.0\nsamples = 5\nvalue = [5, 0]\nclass = No"] ;
889 -> 890 ;
891 [label="Duration <= 60.5\ngini = 0.405\nsamples = 71\nvalue = [51, 20]\nclass = No"] ;
889 -> 891 ;
892 [label="Destination <= 0.5\ngini = 0.32\nsamples = 35\nvalue = [28, 7]\nclass = No"] ;
891 -> 892 ;
893 [label="Age <= 37.0\ngini = 0.165\nsamples = 22\nvalue = [20, 2]\nclass = No"] ;
892 -> 893 ;
894 [label="Duration <= 39.5\ngini = 0.091\nsamples = 21\nvalue = [20, 1]\nclass = No"] ;
893 -> 894 ;
895 [label="Duration <= 38.5\ngini = 0.375\nsamples = 4\nvalue = [3, 1]\nclass = No"] ;
894 -> 895 ;
896 [label="gini = 0.0\nsamples = 3\nvalue = [3, 0]\nclass = No"] ;
895 -> 896 ;
897 [label="gini = 0.0\nsamples = 1\nvalue = [0, 1]\nclass = Yes"] ;
895 -> 897 ;
898 [label="gini = 0.0\nsamples = 17\nvalue = [17, 0]\nclass = No"] ;
894 -> 898 ;
899 [label="gini = 0.0\nsamples = 1\nvalue = [0, 1]\nclass = Yes"] ;
893 -> 899 ;
900 [label="Duration <= 52.5\ngini = 0.473\nsamples = 13\nvalue = [8, 5]\nclass = No"] ;
892 -> 900 ;
901 [label="Duration <= 40.5\ngini = 0.5\nsamples = 10\nvalue = [5, 5]\nclass = No"] ;
900 -> 901 ;
902 [label="Age <= 38.0\ngini = 0.375\nsamples = 4\nvalue = [3, 1]\nclass = No"] ;
901 -> 902 ;
903 [label="gini = 0.0\nsamples = 3\nvalue = [3, 0]\nclass = No"] ;
902 -> 903 ;
904 [label="gini = 0.0\nsamples = 1\nvalue = [0, 1]\nclass = Yes"] ;
902 -> 904 ;
905 [label="Sales <= 74.25\ngini = 0.444\nsamples = 6\nvalue = [2, 4]\nclass = Yes"] ;
901 -> 905 ;
906 [label="Agency_Code <= 1.5\ngini = 0.444\nsamples = 3\nvalue = [2, 1]\nclass = No"] ;
905 -> 906 ;
907 [label="gini = 0.0\nsamples = 2\nvalue = [2, 0]\nclass = No"] ;
906 -> 907 ;
908 [label="gini = 0.0\nsamples = 1\nvalue = [0, 1]\nclass = Yes"] ;
906 -> 908 ;
909 [label="gini = 0.0\nsamples = 3\nvalue = [0, 3]\nclass = Yes"] ;
905 -> 909 ;
910 [label="gini = 0.0\nsamples = 3\nvalue = [3, 0]\nclass = No"] ;
900 -> 910 ;
911 [label="Sales <= 74.6\ngini = 0.461\nsamples = 36\nvalue = [23, 13]\nclass = No"] ;
891 -> 911 ;
912 [label="Duration <= 75.5\ngini = 0.499\nsamples = 23\nvalue = [12, 11]\nclass = No"] ;
911 -> 912 ;
913 [label="Sales <= 34.5\ngini = 0.346\nsamples = 9\nvalue = [2, 7]\nclass = Yes"] ;
912 -> 913 ;
914 [label="gini = 0.5\nsamples = 2\nvalue = [1, 1]\nclass = No"] ;
913 -> 914 ;
915 [label="Sales <= 58.0\ngini = 0.245\nsamples = 7\nvalue = [1, 6]\nclass = Yes"] ;
913 -> 915 ;
916 [label="gini = 0.0\nsamples = 5\nvalue = [0, 5]\nclass = Yes"] ;
915 -> 916 ;
917 [label="Duration <= 71.0\ngini = 0.5\nsamples = 2\nvalue = [1, 1]\nclass = No"] ;
915 -> 917 ;
918 [label="gini = 0.0\nsamples = 1\nvalue = [1, 0]\nclass = No"] ;
917 -> 918 ;
919 [label="gini = 0.0\nsamples = 1\nvalue = [0, 1]\nclass = Yes"] ;
917 -> 919 ;
920 [label="Sales <= 40.3\ngini = 0.408\nsamples = 14\nvalue = [10, 4]\nclass = No"] ;
912 -> 920 ;
921 [label="gini = 0.0\nsamples = 6\nvalue = [6, 0]\nclass = No"] ;
920 -> 921 ;
922 [label="Commision <= 14.85\ngini = 0.5\nsamples = 8\nvalue = [4, 4]\nclass = No"] ;
920 -> 922 ;
923 [label="Duration <= 78.5\ngini = 0.444\nsamples = 6\nvalue = [2, 4]\nclass = Yes"] ;
922 -> 923 ;
924 [label="Sales <= 55.5\ngini = 0.444\nsamples = 3\nvalue = [2, 1]\nclass = No"] ;
923 -> 924 ;
925 [label="gini = 0.0\nsamples = 2\nvalue = [2, 0]\nclass = No"] ;
924 -> 925 ;
926 [label="gini = 0.0\nsamples = 1\nvalue = [0, 1]\nclass = Yes"] ;
924 -> 926 ;
927 [label="gini = 0.0\nsamples = 3\nvalue = [0, 3]\nclass = Yes"] ;
923 -> 927 ;
928 [label="gini = 0.0\nsamples = 2\nvalue = [2, 0]\nclass = No"] ;
922 -> 928 ;
929 [label="Age <= 33.5\ngini = 0.26\nsamples = 13\nvalue = [11, 2]\nclass = No"] ;
911 -> 929 ;
930 [label="Duration <= 71.5\ngini = 0.5\nsamples = 4\nvalue = [2, 2]\nclass = No"] ;
929 -> 930 ;
931 [label="gini = 0.0\nsamples = 1\nvalue = [1, 0]\nclass = No"] ;
930 -> 931 ;
932 [label="Duration <= 75.5\ngini = 0.444\nsamples = 3\nvalue = [1, 2]\nclass = Yes"] ;
930 -> 932 ;
933 [label="gini = 0.0\nsamples = 1\nvalue = [0, 1]\nclass = Yes"] ;
932 -> 933 ;
934 [label="Sales <= 113.85\ngini = 0.5\nsamples = 2\nvalue = [1, 1]\nclass = No"] ;
932 -> 934 ;
935 [label="gini = 0.0\nsamples = 1\nvalue = [0, 1]\nclass = Yes"] ;
934 -> 935 ;
936 [label="gini = 0.0\nsamples = 1\nvalue = [1, 0]\nclass = No"] ;
934 -> 936 ;
937 [label="gini = 0.0\nsamples = 9\nvalue = [9, 0]\nclass = No"] ;
929 -> 937 ;
938 [label="gini = 0.0\nsamples = 10\nvalue = [10, 0]\nclass = No"] ;
878 -> 938 ;
939 [label="Age <= 51.5\ngini = 0.498\nsamples = 15\nvalue = [7, 8]\nclass = Yes"] ;
877 -> 939 ;
940 [label="gini = 0.0\nsamples = 4\nvalue = [0, 4]\nclass = Yes"] ;
939 -> 940 ;
941 [label="Sales <= 88.5\ngini = 0.463\nsamples = 11\nvalue = [7, 4]\nclass = No"] ;
939 -> 941 ;
942 [label="gini = 0.0\nsamples = 4\nvalue = [4, 0]\nclass = No"] ;
941 -> 942 ;
943 [label="Sales <= 110.5\ngini = 0.49\nsamples = 7\nvalue = [3, 4]\nclass = Yes"] ;
941 -> 943 ;
944 [label="gini = 0.0\nsamples = 3\nvalue = [0, 3]\nclass = Yes"] ;
943 -> 944 ;
945 [label="Age <= 63.0\ngini = 0.375\nsamples = 4\nvalue = [3, 1]\nclass = No"] ;
943 -> 945 ;
946 [label="Age <= 56.5\ngini = 0.5\nsamples = 2\nvalue = [1, 1]\nclass = No"] ;
945 -> 946 ;
947 [label="gini = 0.0\nsamples = 1\nvalue = [1, 0]\nclass = No"] ;
946 -> 947 ;
948 [label="gini = 0.0\nsamples = 1\nvalue = [0, 1]\nclass = Yes"] ;
946 -> 948 ;
949 [label="gini = 0.0\nsamples = 2\nvalue = [2, 0]\nclass = No"] ;
945 -> 949 ;
950 [label="Sales <= 38.3\ngini = 0.444\nsamples = 9\nvalue = [3, 6]\nclass = Yes"] ;
876 -> 950 ;
951 [label="gini = 0.0\nsamples = 1\nvalue = [1, 0]\nclass = No"] ;
950 -> 951 ;
952 [label="Sales <= 81.6\ngini = 0.375\nsamples = 8\nvalue = [2, 6]\nclass = Yes"] ;
950 -> 952 ;
953 [label="Sales <= 55.5\ngini = 0.48\nsamples = 5\nvalue = [2, 3]\nclass = Yes"] ;
952 -> 953 ;
954 [label="gini = 0.0\nsamples = 2\nvalue = [0, 2]\nclass = Yes"] ;
953 -> 954 ;
955 [label="Age <= 45.5\ngini = 0.444\nsamples = 3\nvalue = [2, 1]\nclass = No"] ;
953 -> 955 ;
956 [label="gini = 0.0\nsamples = 2\nvalue = [2, 0]\nclass = No"] ;
955 -> 956 ;
957 [label="gini = 0.0\nsamples = 1\nvalue = [0, 1]\nclass = Yes"] ;
955 -> 957 ;
958 [label="gini = 0.0\nsamples = 3\nvalue = [0, 3]\nclass = Yes"] ;
952 -> 958 ;
959 [label="Duration <= 388.0\ngini = 0.165\nsamples = 22\nvalue = [20, 2]\nclass = No"] ;
875 -> 959 ;
960 [label="Duration <= 230.5\ngini = 0.091\nsamples = 21\nvalue = [20, 1]\nclass = No"] ;
959 -> 960 ;
961 [label="gini = 0.0\nsamples = 15\nvalue = [15, 0]\nclass = No"] ;
960 -> 961 ;
962 [label="Duration <= 233.5\ngini = 0.278\nsamples = 6\nvalue = [5, 1]\nclass = No"] ;
960 -> 962 ;
963 [label="gini = 0.0\nsamples = 1\nvalue = [0, 1]\nclass = Yes"] ;
962 -> 963 ;
964 [label="gini = 0.0\nsamples = 5\nvalue = [5, 0]\nclass = No"] ;
962 -> 964 ;
965 [label="gini = 0.0\nsamples = 1\nvalue = [0, 1]\nclass = Yes"] ;
959 -> 965 ;
966 [label="Duration <= 54.0\ngini = 0.5\nsamples = 48\nvalue = [24, 24]\nclass = No"] ;
874 -> 966 ;
967 [label="Duration <= 38.5\ngini = 0.472\nsamples = 21\nvalue = [13, 8]\nclass = No"] ;
966 -> 967 ;
968 [label="Commision <= 38.61\ngini = 0.32\nsamples = 5\nvalue = [1, 4]\nclass = Yes"] ;
967 -> 968 ;
969 [label="gini = 0.0\nsamples = 4\nvalue = [0, 4]\nclass = Yes"] ;
968 -> 969 ;
970 [label="gini = 0.0\nsamples = 1\nvalue = [1, 0]\nclass = No"] ;
968 -> 970 ;
971 [label="Age <= 37.0\ngini = 0.375\nsamples = 16\nvalue = [12, 4]\nclass = No"] ;
967 -> 971 ;
972 [label="Commision <= 44.55\ngini = 0.153\nsamples = 12\nvalue = [11, 1]\nclass = No"] ;
971 -> 972 ;
973 [label="gini = 0.0\nsamples = 10\nvalue = [10, 0]\nclass = No"] ;
972 -> 973 ;
974 [label="Commision <= 50.49\ngini = 0.5\nsamples = 2\nvalue = [1, 1]\nclass = No"] ;
972 -> 974 ;
975 [label="gini = 0.0\nsamples = 1\nvalue = [0, 1]\nclass = Yes"] ;
974 -> 975 ;
976 [label="gini = 0.0\nsamples = 1\nvalue = [1, 0]\nclass = No"] ;
974 -> 976 ;
977 [label="Sales <= 89.1\ngini = 0.375\nsamples = 4\nvalue = [1, 3]\nclass = Yes"] ;
971 -> 977 ;
978 [label="gini = 0.0\nsamples = 3\nvalue = [0, 3]\nclass = Yes"] ;
977 -> 978 ;
979 [label="gini = 0.0\nsamples = 1\nvalue = [1, 0]\nclass = No"] ;
977 -> 979 ;
980 [label="Age <= 40.5\ngini = 0.483\nsamples = 27\nvalue = [11, 16]\nclass = Yes"] ;
966 -> 980 ;
981 [label="Commision <= 35.64\ngini = 0.408\nsamples = 21\nvalue = [6, 15]\nclass = Yes"] ;
980 -> 981 ;
982 [label="Sales <= 82.0\ngini = 0.469\nsamples = 16\nvalue = [6, 10]\nclass = Yes"] ;
981 -> 982 ;
983 [label="Sales <= 60.0\ngini = 0.49\nsamples = 7\nvalue = [4, 3]\nclass = No"] ;
982 -> 983 ;
984 [label="Age <= 37.0\ngini = 0.48\nsamples = 5\nvalue = [2, 3]\nclass = Yes"] ;
983 -> 984 ;
985 [label="Duration <= 59.5\ngini = 0.375\nsamples = 4\nvalue = [1, 3]\nclass = Yes"] ;
984 -> 985 ;
986 [label="gini = 0.0\nsamples = 1\nvalue = [1, 0]\nclass = No"] ;
985 -> 986 ;
987 [label="gini = 0.0\nsamples = 3\nvalue = [0, 3]\nclass = Yes"] ;
985 -> 987 ;
988 [label="gini = 0.0\nsamples = 1\nvalue = [1, 0]\nclass = No"] ;
984 -> 988 ;
989 [label="gini = 0.0\nsamples = 2\nvalue = [2, 0]\nclass = No"] ;
983 -> 989 ;
990 [label="Sales <= 146.0\ngini = 0.346\nsamples = 9\nvalue = [2, 7]\nclass = Yes"] ;
982 -> 990 ;
991 [label="Duration <= 71.0\ngini = 0.219\nsamples = 8\nvalue = [1, 7]\nclass = Yes"] ;
990 -> 991 ;
992 [label="Duration <= 63.0\ngini = 0.444\nsamples = 3\nvalue = [1, 2]\nclass = Yes"] ;
991 -> 992 ;
993 [label="gini = 0.0\nsamples = 2\nvalue = [0, 2]\nclass = Yes"] ;
992 -> 993 ;
994 [label="gini = 0.0\nsamples = 1\nvalue = [1, 0]\nclass = No"] ;
992 -> 994 ;
995 [label="gini = 0.0\nsamples = 5\nvalue = [0, 5]\nclass = Yes"] ;
991 -> 995 ;
996 [label="gini = 0.0\nsamples = 1\nvalue = [1, 0]\nclass = No"] ;
990 -> 996 ;
997 [label="gini = 0.0\nsamples = 5\nvalue = [0, 5]\nclass = Yes"] ;
981 -> 997 ;
998 [label="Age <= 58.5\ngini = 0.278\nsamples = 6\nvalue = [5, 1]\nclass = No"] ;
980 -> 998 ;
999 [label="gini = 0.0\nsamples = 5\nvalue = [5, 0]\nclass = No"] ;
998 -> 999 ;
1000 [label="gini = 0.0\nsamples = 1\nvalue = [0, 1]\nclass = Yes"] ;
998 -> 1000 ;
1001 [label="Product Name <= 3.5\ngini = 0.498\nsamples = 15\nvalue = [7, 8]\nclass = Yes"] ;
733 -> 1001 ;
1002 [label="Age <= 26.0\ngini = 0.397\nsamples = 11\nvalue = [3, 8]\nclass = Yes"] ;
1001 -> 1002 ;
1003 [label="gini = 0.0\nsamples = 1\nvalue = [1, 0]\nclass = No"] ;
1002 -> 1003 ;
1004 [label="Age <= 66.5\ngini = 0.32\nsamples = 10\nvalue = [2, 8]\nclass = Yes"] ;
1002 -> 1004 ;
1005 [label="Commision <= 25.515\ngini = 0.198\nsamples = 9\nvalue = [1, 8]\nclass = Yes"] ;
1004 -> 1005 ;
1006 [label="Age <= 33.5\ngini = 0.375\nsamples = 4\nvalue = [1, 3]\nclass = Yes"] ;
1005 -> 1006 ;
1007 [label="gini = 0.0\nsamples = 2\nvalue = [0, 2]\nclass = Yes"] ;
1006 -> 1007 ;
1008 [label="Age <= 49.5\ngini = 0.5\nsamples = 2\nvalue = [1, 1]\nclass = No"] ;
1006 -> 1008 ;
1009 [label="gini = 0.0\nsamples = 1\nvalue = [1, 0]\nclass = No"] ;
1008 -> 1009 ;
1010 [label="gini = 0.0\nsamples = 1\nvalue = [0, 1]\nclass = Yes"] ;
1008 -> 1010 ;
1011 [label="gini = 0.0\nsamples = 5\nvalue = [0, 5]\nclass = Yes"] ;
1005 -> 1011 ;
1012 [label="gini = 0.0\nsamples = 1\nvalue = [1, 0]\nclass = No"] ;
1004 -> 1012 ;
1013 [label="gini = 0.0\nsamples = 4\nvalue = [4, 0]\nclass = No"] ;
1001 -> 1013 ;
1014 [label="Commision <= 14.85\ngini = 0.469\nsamples = 40\nvalue = [15, 25]\nclass = Yes"] ;
726 -> 1014 ;
1015 [label="Duration <= 6.0\ngini = 0.245\nsamples = 7\nvalue = [6, 1]\nclass = No"] ;
1014 -> 1015 ;
1016 [label="gini = 0.0\nsamples = 1\nvalue = [0, 1]\nclass = Yes"] ;
1015 -> 1016 ;
1017 [label="gini = 0.0\nsamples = 6\nvalue = [6, 0]\nclass = No"] ;
1015 -> 1017 ;
1018 [label="Age <= 39.5\ngini = 0.397\nsamples = 33\nvalue = [9, 24]\nclass = Yes"] ;
1014 -> 1018 ;
1019 [label="Sales <= 206.25\ngini = 0.298\nsamples = 22\nvalue = [4, 18]\nclass = Yes"] ;
1018 -> 1019 ;
1020 [label="gini = 0.0\nsamples = 10\nvalue = [0, 10]\nclass = Yes"] ;
1019 -> 1020 ;
1021 [label="Duration <= 365.5\ngini = 0.444\nsamples = 12\nvalue = [4, 8]\nclass = Yes"] ;
1019 -> 1021 ;
1022 [label="Duration <= 69.5\ngini = 0.375\nsamples = 4\nvalue = [3, 1]\nclass = No"] ;
1021 -> 1022 ;
1023 [label="gini = 0.0\nsamples = 1\nvalue = [0, 1]\nclass = Yes"] ;
1022 -> 1023 ;
1024 [label="gini = 0.0\nsamples = 3\nvalue = [3, 0]\nclass = No"] ;
1022 -> 1024 ;
1025 [label="Age <= 29.0\ngini = 0.219\nsamples = 8\nvalue = [1, 7]\nclass = Yes"] ;
1021 -> 1025 ;
1026 [label="Sales <= 243.0\ngini = 0.5\nsamples = 2\nvalue = [1, 1]\nclass = No"] ;
1025 -> 1026 ;
1027 [label="gini = 0.0\nsamples = 1\nvalue = [0, 1]\nclass = Yes"] ;
1026 -> 1027 ;
1028 [label="gini = 0.0\nsamples = 1\nvalue = [1, 0]\nclass = No"] ;
1026 -> 1028 ;
1029 [label="gini = 0.0\nsamples = 6\nvalue = [0, 6]\nclass = Yes"] ;
1025 -> 1029 ;
1030 [label="Age <= 43.0\ngini = 0.496\nsamples = 11\nvalue = [5, 6]\nclass = Yes"] ;
1018 -> 1030 ;
1031 [label="gini = 0.0\nsamples = 3\nvalue = [3, 0]\nclass = No"] ;
1030 -> 1031 ;
1032 [label="Destination <= 1.5\ngini = 0.375\nsamples = 8\nvalue = [2, 6]\nclass = Yes"] ;
1030 -> 1032 ;
1033 [label="Duration <= 32.0\ngini = 0.245\nsamples = 7\nvalue = [1, 6]\nclass = Yes"] ;
1032 -> 1033 ;
1034 [label="Sales <= 220.8\ngini = 0.5\nsamples = 2\nvalue = [1, 1]\nclass = No"] ;
1033 -> 1034 ;
1035 [label="gini = 0.0\nsamples = 1\nvalue = [0, 1]\nclass = Yes"] ;
1034 -> 1035 ;
1036 [label="gini = 0.0\nsamples = 1\nvalue = [1, 0]\nclass = No"] ;
1034 -> 1036 ;
1037 [label="gini = 0.0\nsamples = 5\nvalue = [0, 5]\nclass = Yes"] ;
1033 -> 1037 ;
1038 [label="gini = 0.0\nsamples = 1\nvalue = [1, 0]\nclass = No"] ;
1032 -> 1038 ;
}